digraph Tree {
node [shape=box, style="rounded", color="black", fontname=helvetica] ;
edge [fontname=helvetica] ;
0 [label="NO2 <= 17.2\nmse = 288.4\nsamples = 698\nvalue = 34.7"] ;
1 [label="TEMP <= 27.9\nmse = 121.4\nsamples = 325\nvalue = 21.7"] ;
0 -> 1 [labeldistance=2.5, labelangle=45, headlabel="True"] ;
2 [label="O3 <= 30.4\nmse = 91.7\nsamples = 191\nvalue = 28.3"] ;
1 -> 2 ;
3 [label="NO2 <= 7.4\nmse = 23.5\nsamples = 102\nvalue = 23.5"] ;
2 -> 3 ;
4 [label="Humidity <= 79.1\nmse = 11.9\nsamples = 13\nvalue = 16.8"] ;
3 -> 4 ;
5 [label="NO2 <= 5.6\nmse = 5.1\nsamples = 7\nvalue = 14.7"] ;
4 -> 5 ;
6 [label="Humidity <= 73.7\nmse = 0.7\nsamples = 3\nvalue = 17.0"] ;
5 -> 6 ;
7 [label="mse = 0.0\nsamples = 1\nvalue = 16.0"] ;
6 -> 7 ;
8 [label="CO <= 0.2\nmse = 0.2\nsamples = 2\nvalue = 17.5"] ;
6 -> 8 ;
9 [label="mse = 0.0\nsamples = 1\nvalue = 18.0"] ;
8 -> 9 ;
10 [label="mse = 0.0\nsamples = 1\nvalue = 17.0"] ;
8 -> 10 ;
11 [label="SO2 <= 2.3\nmse = 1.5\nsamples = 4\nvalue = 13.0"] ;
5 -> 11 ;
12 [label="mse = 0.0\nsamples = 1\nvalue = 11.0"] ;
11 -> 12 ;
13 [label="CO <= 0.1\nmse = 0.2\nsamples = 3\nvalue = 13.7"] ;
11 -> 13 ;
14 [label="mse = 0.0\nsamples = 1\nvalue = 13.0"] ;
13 -> 14 ;
15 [label="mse = 0.0\nsamples = 2\nvalue = 14.0"] ;
13 -> 15 ;
16 [label="SO2 <= 1.6\nmse = 10.7\nsamples = 6\nvalue = 18.6"] ;
4 -> 16 ;
17 [label="mse = 0.0\nsamples = 1\nvalue = 11.0"] ;
16 -> 17 ;
18 [label="O3 <= 28.6\nmse = 2.8\nsamples = 5\nvalue = 19.7"] ;
16 -> 18 ;
19 [label="Humidity <= 82.0\nmse = 1.1\nsamples = 4\nvalue = 19.2"] ;
18 -> 19 ;
20 [label="Humidity <= 80.8\nmse = 0.2\nsamples = 3\nvalue = 19.6"] ;
19 -> 20 ;
21 [label="mse = 0.0\nsamples = 2\nvalue = 20.0"] ;
20 -> 21 ;
22 [label="mse = 0.0\nsamples = 1\nvalue = 19.0"] ;
20 -> 22 ;
23 [label="mse = 0.0\nsamples = 1\nvalue = 17.0"] ;
19 -> 23 ;
24 [label="mse = 0.0\nsamples = 1\nvalue = 23.0"] ;
18 -> 24 ;
25 [label="O3 <= 19.8\nmse = 19.6\nsamples = 89\nvalue = 24.2"] ;
3 -> 25 ;
26 [label="Humidity <= 77.1\nmse = 6.8\nsamples = 20\nvalue = 20.2"] ;
25 -> 26 ;
27 [label="CH4 <= 1.8\nmse = 5.2\nsamples = 11\nvalue = 21.6"] ;
26 -> 27 ;
28 [label="NMHC <= 0.1\nmse = 2.5\nsamples = 5\nvalue = 23.5"] ;
27 -> 28 ;
29 [label="mse = 0.0\nsamples = 1\nvalue = 27.0"] ;
28 -> 29 ;
30 [label="CO <= 0.3\nmse = 0.9\nsamples = 4\nvalue = 23.0"] ;
28 -> 30 ;
31 [label="Nox <= 16.0\nmse = 0.2\nsamples = 3\nvalue = 22.7"] ;
30 -> 31 ;
32 [label="mse = 0.0\nsamples = 1\nvalue = 23.0"] ;
31 -> 32 ;
33 [label="mse = 0.0\nsamples = 2\nvalue = 22.0"] ;
31 -> 33 ;
34 [label="mse = 0.0\nsamples = 1\nvalue = 25.0"] ;
30 -> 34 ;
35 [label="Humidity <= 72.2\nmse = 1.4\nsamples = 6\nvalue = 19.9"] ;
27 -> 35 ;
36 [label="mse = 0.0\nsamples = 2\nvalue = 21.0"] ;
35 -> 36 ;
37 [label="THC <= 2.0\nmse = 0.8\nsamples = 4\nvalue = 19.0"] ;
35 -> 37 ;
38 [label="mse = 0.0\nsamples = 1\nvalue = 20.0"] ;
37 -> 38 ;
39 [label="Nox <= 16.0\nmse = 0.2\nsamples = 3\nvalue = 18.3"] ;
37 -> 39 ;
40 [label="mse = 0.0\nsamples = 1\nvalue = 19.0"] ;
39 -> 40 ;
41 [label="mse = 0.0\nsamples = 2\nvalue = 18.0"] ;
39 -> 41 ;
42 [label="CO <= 0.5\nmse = 3.7\nsamples = 9\nvalue = 18.6"] ;
26 -> 42 ;
43 [label="CO <= 0.3\nmse = 2.1\nsamples = 7\nvalue = 19.1"] ;
42 -> 43 ;
44 [label="mse = 0.0\nsamples = 2\nvalue = 17.0"] ;
43 -> 44 ;
45 [label="NO <= 6.0\nmse = 0.8\nsamples = 5\nvalue = 19.8"] ;
43 -> 45 ;
46 [label="SO2 <= 4.2\nmse = 0.2\nsamples = 3\nvalue = 20.3"] ;
45 -> 46 ;
47 [label="mse = 0.0\nsamples = 1\nvalue = 21.0"] ;
46 -> 47 ;
48 [label="mse = 0.0\nsamples = 2\nvalue = 20.0"] ;
46 -> 48 ;
49 [label="NO2 <= 14.9\nmse = 0.2\nsamples = 2\nvalue = 18.7"] ;
45 -> 49 ;
50 [label="mse = 0.0\nsamples = 1\nvalue = 18.0"] ;
49 -> 50 ;
51 [label="mse = 0.0\nsamples = 1\nvalue = 19.0"] ;
49 -> 51 ;
52 [label="O3 <= 17.3\nmse = 2.2\nsamples = 2\nvalue = 15.5"] ;
42 -> 52 ;
53 [label="mse = 0.0\nsamples = 1\nvalue = 14.0"] ;
52 -> 53 ;
54 [label="mse = 0.0\nsamples = 1\nvalue = 17.0"] ;
52 -> 54 ;
55 [label="SO2 <= 2.2\nmse = 17.7\nsamples = 69\nvalue = 25.3"] ;
25 -> 55 ;
56 [label="NO2 <= 10.6\nmse = 10.5\nsamples = 6\nvalue = 31.1"] ;
55 -> 56 ;
57 [label="NO <= 2.6\nmse = 5.4\nsamples = 3\nvalue = 29.4"] ;
56 -> 57 ;
58 [label="TEMP <= 9.8\nmse = 0.8\nsamples = 2\nvalue = 27.5"] ;
57 -> 58 ;
59 [label="mse = 0.0\nsamples = 1\nvalue = 26.0"] ;
58 -> 59 ;
60 [label="mse = 0.0\nsamples = 1\nvalue = 28.0"] ;
58 -> 60 ;
61 [label="mse = 0.0\nsamples = 1\nvalue = 32.0"] ;
57 -> 61 ;
62 [label="NO2 <= 11.2\nmse = 0.7\nsamples = 3\nvalue = 35.0"] ;
56 -> 62 ;
63 [label="mse = 0.0\nsamples = 1\nvalue = 34.0"] ;
62 -> 63 ;
64 [label="SO2 <= 1.7\nmse = 0.2\nsamples = 2\nvalue = 35.5"] ;
62 -> 64 ;
65 [label="mse = 0.0\nsamples = 1\nvalue = 36.0"] ;
64 -> 65 ;
66 [label="mse = 0.0\nsamples = 1\nvalue = 35.0"] ;
64 -> 66 ;
67 [label="SO2 <= 4.4\nmse = 14.7\nsamples = 63\nvalue = 24.7"] ;
55 -> 67 ;
68 [label="CO <= 0.3\nmse = 7.8\nsamples = 18\nvalue = 22.4"] ;
67 -> 68 ;
69 [label="Humidity <= 79.3\nmse = 6.3\nsamples = 9\nvalue = 21.1"] ;
68 -> 69 ;
70 [label="Nox <= 12.5\nmse = 3.7\nsamples = 4\nvalue = 23.6"] ;
69 -> 70 ;
71 [label="mse = 0.0\nsamples = 1\nvalue = 26.0"] ;
70 -> 71 ;
72 [label="O3 <= 21.4\nmse = 1.8\nsamples = 3\nvalue = 22.6"] ;
70 -> 72 ;
73 [label="mse = 0.0\nsamples = 1\nvalue = 20.0"] ;
72 -> 73 ;
74 [label="THC <= 1.0\nmse = 0.2\nsamples = 2\nvalue = 23.2"] ;
72 -> 74 ;
75 [label="mse = 0.0\nsamples = 1\nvalue = 23.0"] ;
74 -> 75 ;
76 [label="mse = 0.0\nsamples = 1\nvalue = 24.0"] ;
74 -> 76 ;
77 [label="NO2 <= 11.5\nmse = 1.3\nsamples = 5\nvalue = 19.5"] ;
69 -> 77 ;
78 [label="THC <= 1.0\nmse = 0.5\nsamples = 3\nvalue = 18.7"] ;
77 -> 78 ;
79 [label="mse = 0.0\nsamples = 2\nvalue = 19.0"] ;
78 -> 79 ;
80 [label="mse = 0.0\nsamples = 1\nvalue = 17.0"] ;
78 -> 80 ;
81 [label="Humidity <= 79.7\nmse = 0.2\nsamples = 2\nvalue = 20.8"] ;
77 -> 81 ;
82 [label="mse = 0.0\nsamples = 1\nvalue = 20.0"] ;
81 -> 82 ;
83 [label="mse = 0.0\nsamples = 1\nvalue = 21.0"] ;
81 -> 83 ;
84 [label="Nox <= 19.5\nmse = 4.7\nsamples = 9\nvalue = 24.1"] ;
68 -> 84 ;
85 [label="Humidity <= 80.3\nmse = 2.5\nsamples = 8\nvalue = 24.7"] ;
84 -> 85 ;
86 [label="Humidity <= 72.8\nmse = 0.9\nsamples = 5\nvalue = 25.4"] ;
85 -> 86 ;
87 [label="SO2 <= 3.5\nmse = 0.1\nsamples = 3\nvalue = 24.8"] ;
86 -> 87 ;
88 [label="mse = 0.0\nsamples = 1\nvalue = 24.0"] ;
87 -> 88 ;
89 [label="mse = 0.0\nsamples = 2\nvalue = 25.0"] ;
87 -> 89 ;
90 [label="Nox <= 16.0\nmse = 0.2\nsamples = 2\nvalue = 26.7"] ;
86 -> 90 ;
91 [label="mse = 0.0\nsamples = 1\nvalue = 27.0"] ;
90 -> 91 ;
92 [label="mse = 0.0\nsamples = 1\nvalue = 26.0"] ;
90 -> 92 ;
93 [label="NMHC <= 0.2\nmse = 2.0\nsamples = 3\nvalue = 23.0"] ;
85 -> 93 ;
94 [label="mse = 0.0\nsamples = 1\nvalue = 21.0"] ;
93 -> 94 ;
95 [label="Humidity <= 82.0\nmse = 0.9\nsamples = 2\nvalue = 23.7"] ;
93 -> 95 ;
96 [label="mse = 0.0\nsamples = 1\nvalue = 25.0"] ;
95 -> 96 ;
97 [label="mse = 0.0\nsamples = 1\nvalue = 23.0"] ;
95 -> 97 ;
98 [label="mse = 0.0\nsamples = 1\nvalue = 20.0"] ;
84 -> 98 ;
99 [label="Nox <= 10.5\nmse = 14.4\nsamples = 45\nvalue = 25.8"] ;
67 -> 99 ;
100 [label="NO2 <= 7.9\nmse = 0.2\nsamples = 2\nvalue = 35.5"] ;
99 -> 100 ;
101 [label="mse = 0.0\nsamples = 1\nvalue = 36.0"] ;
100 -> 101 ;
102 [label="mse = 0.0\nsamples = 1\nvalue = 35.0"] ;
100 -> 102 ;
103 [label="THC <= 1.9\nmse = 12.0\nsamples = 43\nvalue = 25.5"] ;
99 -> 103 ;
104 [label="CO <= 0.3\nmse = 19.1\nsamples = 13\nvalue = 27.4"] ;
103 -> 104 ;
105 [label="Humidity <= 77.9\nmse = 12.0\nsamples = 2\nvalue = 21.0"] ;
104 -> 105 ;
106 [label="mse = 0.0\nsamples = 1\nvalue = 23.0"] ;
105 -> 106 ;
107 [label="mse = 0.0\nsamples = 1\nvalue = 15.0"] ;
105 -> 107 ;
108 [label="CO <= 0.3\nmse = 7.9\nsamples = 11\nvalue = 29.1"] ;
104 -> 108 ;
109 [label="SO2 <= 5.5\nmse = 6.4\nsamples = 3\nvalue = 32.0"] ;
108 -> 109 ;
110 [label="mse = 0.0\nsamples = 1\nvalue = 36.0"] ;
109 -> 110 ;
111 [label="NMHC <= 0.2\nmse = 3.0\nsamples = 2\nvalue = 31.0"] ;
109 -> 111 ;
112 [label="mse = 0.0\nsamples = 1\nvalue = 32.0"] ;
111 -> 112 ;
113 [label="mse = 0.0\nsamples = 1\nvalue = 28.0"] ;
111 -> 113 ;
114 [label="SO2 <= 9.8\nmse = 2.9\nsamples = 8\nvalue = 27.7"] ;
108 -> 114 ;
115 [label="NO2 <= 15.7\nmse = 0.6\nsamples = 6\nvalue = 26.9"] ;
114 -> 115 ;
116 [label="NO <= 4.0\nmse = 0.2\nsamples = 4\nvalue = 27.4"] ;
115 -> 116 ;
117 [label="mse = 0.0\nsamples = 1\nvalue = 28.0"] ;
116 -> 117 ;
118 [label="mse = 0.0\nsamples = 3\nvalue = 27.0"] ;
116 -> 118 ;
119 [label="mse = 0.0\nsamples = 2\nvalue = 26.0"] ;
115 -> 119 ;
120 [label="CO <= 0.4\nmse = 2.0\nsamples = 2\nvalue = 30.0"] ;
114 -> 120 ;
121 [label="mse = 0.0\nsamples = 1\nvalue = 32.0"] ;
120 -> 121 ;
122 [label="mse = 0.0\nsamples = 1\nvalue = 29.0"] ;
120 -> 122 ;
123 [label="THC <= 1.9\nmse = 6.7\nsamples = 30\nvalue = 24.7"] ;
103 -> 123 ;
124 [label="Humidity <= 78.1\nmse = 1.5\nsamples = 5\nvalue = 22.0"] ;
123 -> 124 ;
125 [label="mse = 0.0\nsamples = 3\nvalue = 23.0"] ;
124 -> 125 ;
126 [label="CH4 <= 1.7\nmse = 0.2\nsamples = 2\nvalue = 20.6"] ;
124 -> 126 ;
127 [label="mse = 0.0\nsamples = 1\nvalue = 20.0"] ;
126 -> 127 ;
128 [label="mse = 0.0\nsamples = 1\nvalue = 21.0"] ;
126 -> 128 ;
129 [label="O3 <= 27.6\nmse = 5.2\nsamples = 25\nvalue = 25.6"] ;
123 -> 129 ;
130 [label="CO <= 0.4\nmse = 3.6\nsamples = 21\nvalue = 25.0"] ;
129 -> 130 ;
131 [label="NO2 <= 11.6\nmse = 2.3\nsamples = 17\nvalue = 25.5"] ;
130 -> 131 ;
132 [label="NO <= 2.5\nmse = 0.2\nsamples = 4\nvalue = 26.6"] ;
131 -> 132 ;
133 [label="mse = 0.0\nsamples = 1\nvalue = 26.0"] ;
132 -> 133 ;
134 [label="mse = 0.0\nsamples = 3\nvalue = 27.0"] ;
132 -> 134 ;
135 [label="NO2 <= 14.2\nmse = 2.5\nsamples = 13\nvalue = 25.0"] ;
131 -> 135 ;
136 [label="CO <= 0.3\nmse = 0.8\nsamples = 7\nvalue = 23.9"] ;
135 -> 136 ;
137 [label="O3 <= 22.8\nmse = 0.2\nsamples = 2\nvalue = 22.5"] ;
136 -> 137 ;
138 [label="mse = 0.0\nsamples = 1\nvalue = 22.0"] ;
137 -> 138 ;
139 [label="mse = 0.0\nsamples = 1\nvalue = 23.0"] ;
137 -> 139 ;
140 [label="Humidity <= 74.8\nmse = 0.2\nsamples = 5\nvalue = 24.3"] ;
136 -> 140 ;
141 [label="mse = 0.0\nsamples = 2\nvalue = 25.0"] ;
140 -> 141 ;
142 [label="mse = 0.0\nsamples = 3\nvalue = 24.0"] ;
140 -> 142 ;
143 [label="SO2 <= 7.4\nmse = 1.4\nsamples = 6\nvalue = 26.2"] ;
135 -> 143 ;
144 [label="NO2 <= 15.8\nmse = 0.6\nsamples = 5\nvalue = 25.7"] ;
143 -> 144 ;
145 [label="mse = 0.0\nsamples = 4\nvalue = 26.0"] ;
144 -> 145 ;
146 [label="mse = 0.0\nsamples = 1\nvalue = 24.0"] ;
144 -> 146 ;
147 [label="mse = 0.0\nsamples = 1\nvalue = 28.0"] ;
143 -> 147 ;
148 [label="CO <= 0.5\nmse = 1.8\nsamples = 4\nvalue = 22.4"] ;
130 -> 148 ;
149 [label="NMHC <= 0.2\nmse = 0.2\nsamples = 3\nvalue = 21.3"] ;
148 -> 149 ;
150 [label="mse = 0.0\nsamples = 1\nvalue = 22.0"] ;
149 -> 150 ;
151 [label="mse = 0.0\nsamples = 2\nvalue = 21.0"] ;
149 -> 151 ;
152 [label="mse = 0.0\nsamples = 1\nvalue = 24.0"] ;
148 -> 152 ;
153 [label="O3 <= 29.8\nmse = 4.2\nsamples = 4\nvalue = 28.3"] ;
129 -> 153 ;
154 [label="NO2 <= 16.6\nmse = 0.6\nsamples = 3\nvalue = 29.2"] ;
153 -> 154 ;
155 [label="NMHC <= 0.2\nmse = 0.2\nsamples = 2\nvalue = 28.7"] ;
154 -> 155 ;
156 [label="mse = 0.0\nsamples = 1\nvalue = 29.0"] ;
155 -> 156 ;
157 [label="mse = 0.0\nsamples = 1\nvalue = 28.0"] ;
155 -> 157 ;
158 [label="mse = 0.0\nsamples = 1\nvalue = 30.0"] ;
154 -> 158 ;
159 [label="mse = 0.0\nsamples = 1\nvalue = 24.0"] ;
153 -> 159 ;
160 [label="TEMP <= 22.9\nmse = 112.9\nsamples = 89\nvalue = 34.0"] ;
2 -> 160 ;
161 [label="CO <= 0.4\nmse = 104.3\nsamples = 48\nvalue = 40.1"] ;
160 -> 161 ;
162 [label="O3 <= 37.2\nmse = 40.9\nsamples = 15\nvalue = 30.9"] ;
161 -> 162 ;
163 [label="SO2 <= 3.5\nmse = 14.9\nsamples = 9\nvalue = 27.0"] ;
162 -> 163 ;
164 [label="NO2 <= 5.8\nmse = 3.3\nsamples = 4\nvalue = 23.0"] ;
163 -> 164 ;
165 [label="THC <= 0.9\nmse = 0.2\nsamples = 2\nvalue = 20.5"] ;
164 -> 165 ;
166 [label="mse = 0.0\nsamples = 1\nvalue = 20.0"] ;
165 -> 166 ;
167 [label="mse = 0.0\nsamples = 1\nvalue = 21.0"] ;
165 -> 167 ;
168 [label="NMHC <= 0.0\nmse = 0.2\nsamples = 2\nvalue = 24.2"] ;
164 -> 168 ;
169 [label="mse = 0.0\nsamples = 1\nvalue = 25.0"] ;
168 -> 169 ;
170 [label="mse = 0.0\nsamples = 1\nvalue = 24.0"] ;
168 -> 170 ;
171 [label="O3 <= 32.4\nmse = 2.5\nsamples = 5\nvalue = 30.0"] ;
163 -> 171 ;
172 [label="O3 <= 31.9\nmse = 0.5\nsamples = 3\nvalue = 29.2"] ;
171 -> 172 ;
173 [label="CH4 <= 0.9\nmse = 0.2\nsamples = 2\nvalue = 28.8"] ;
172 -> 173 ;
174 [label="mse = 0.0\nsamples = 1\nvalue = 28.0"] ;
173 -> 174 ;
175 [label="mse = 0.0\nsamples = 1\nvalue = 29.0"] ;
173 -> 175 ;
176 [label="mse = 0.0\nsamples = 1\nvalue = 30.0"] ;
172 -> 176 ;
177 [label="NO2 <= 12.7\nmse = 0.2\nsamples = 2\nvalue = 32.5"] ;
171 -> 177 ;
178 [label="mse = 0.0\nsamples = 1\nvalue = 32.0"] ;
177 -> 178 ;
179 [label="mse = 0.0\nsamples = 1\nvalue = 33.0"] ;
177 -> 179 ;
180 [label="SO2 <= 3.0\nmse = 3.7\nsamples = 6\nvalue = 38.6"] ;
162 -> 180 ;
181 [label="mse = 0.0\nsamples = 1\nvalue = 42.0"] ;
180 -> 181 ;
182 [label="CO <= 0.4\nmse = 2.0\nsamples = 5\nvalue = 38.0"] ;
180 -> 182 ;
183 [label="NO2 <= 13.9\nmse = 0.2\nsamples = 3\nvalue = 36.7"] ;
182 -> 183 ;
184 [label="mse = 0.0\nsamples = 2\nvalue = 37.0"] ;
183 -> 184 ;
185 [label="mse = 0.0\nsamples = 1\nvalue = 36.0"] ;
183 -> 185 ;
186 [label="SO2 <= 5.2\nmse = 0.2\nsamples = 2\nvalue = 39.3"] ;
182 -> 186 ;
187 [label="mse = 0.0\nsamples = 1\nvalue = 39.0"] ;
186 -> 187 ;
188 [label="mse = 0.0\nsamples = 1\nvalue = 40.0"] ;
186 -> 188 ;
189 [label="CO <= 0.5\nmse = 78.3\nsamples = 33\nvalue = 44.1"] ;
161 -> 189 ;
190 [label="O3 <= 41.9\nmse = 53.6\nsamples = 21\nvalue = 40.9"] ;
189 -> 190 ;
191 [label="Nox <= 17.5\nmse = 36.3\nsamples = 16\nvalue = 38.1"] ;
190 -> 191 ;
192 [label="NO2 <= 11.8\nmse = 29.6\nsamples = 12\nvalue = 40.0"] ;
191 -> 192 ;
193 [label="Humidity <= 74.7\nmse = 14.0\nsamples = 7\nvalue = 37.3"] ;
192 -> 193 ;
194 [label="NO2 <= 9.8\nmse = 8.0\nsamples = 5\nvalue = 39.0"] ;
193 -> 194 ;
195 [label="mse = 0.0\nsamples = 1\nvalue = 46.0"] ;
194 -> 195 ;
196 [label="Humidity <= 70.0\nmse = 1.1\nsamples = 4\nvalue = 38.0"] ;
194 -> 196 ;
197 [label="mse = 0.0\nsamples = 1\nvalue = 40.0"] ;
196 -> 197 ;
198 [label="TEMP <= 22.7\nmse = 0.6\nsamples = 3\nvalue = 37.7"] ;
196 -> 198 ;
199 [label="mse = 0.0\nsamples = 2\nvalue = 38.0"] ;
198 -> 199 ;
200 [label="mse = 0.0\nsamples = 1\nvalue = 36.0"] ;
198 -> 200 ;
201 [label="Humidity <= 76.1\nmse = 0.9\nsamples = 2\nvalue = 32.7"] ;
193 -> 201 ;
202 [label="mse = 0.0\nsamples = 1\nvalue = 32.0"] ;
201 -> 202 ;
203 [label="mse = 0.0\nsamples = 1\nvalue = 34.0"] ;
201 -> 203 ;
204 [label="CO <= 0.4\nmse = 19.7\nsamples = 5\nvalue = 45.0"] ;
192 -> 204 ;
205 [label="mse = 0.0\nsamples = 1\nvalue = 37.0"] ;
204 -> 205 ;
206 [label="SO2 <= 2.9\nmse = 8.2\nsamples = 4\nvalue = 46.6"] ;
204 -> 206 ;
207 [label="O3 <= 32.8\nmse = 0.2\nsamples = 2\nvalue = 44.3"] ;
206 -> 207 ;
208 [label="mse = 0.0\nsamples = 1\nvalue = 44.0"] ;
207 -> 208 ;
209 [label="mse = 0.0\nsamples = 1\nvalue = 45.0"] ;
207 -> 209 ;
210 [label="Nox <= 15.5\nmse = 1.0\nsamples = 2\nvalue = 50.0"] ;
206 -> 210 ;
211 [label="mse = 0.0\nsamples = 1\nvalue = 51.0"] ;
210 -> 211 ;
212 [label="mse = 0.0\nsamples = 1\nvalue = 49.0"] ;
210 -> 212 ;
213 [label="SO2 <= 5.2\nmse = 7.0\nsamples = 4\nvalue = 31.8"] ;
191 -> 213 ;
214 [label="mse = 0.0\nsamples = 1\nvalue = 27.0"] ;
213 -> 214 ;
215 [label="CO <= 0.4\nmse = 1.5\nsamples = 3\nvalue = 33.0"] ;
213 -> 215 ;
216 [label="SO2 <= 6.5\nmse = 0.2\nsamples = 2\nvalue = 33.7"] ;
215 -> 216 ;
217 [label="mse = 0.0\nsamples = 1\nvalue = 34.0"] ;
216 -> 217 ;
218 [label="mse = 0.0\nsamples = 1\nvalue = 33.0"] ;
216 -> 218 ;
219 [label="mse = 0.0\nsamples = 1\nvalue = 31.0"] ;
215 -> 219 ;
220 [label="NMHC <= 0.1\nmse = 24.2\nsamples = 5\nvalue = 48.4"] ;
190 -> 220 ;
221 [label="NO <= 2.0\nmse = 2.7\nsamples = 4\nvalue = 50.1"] ;
220 -> 221 ;
222 [label="mse = 0.0\nsamples = 1\nvalue = 47.0"] ;
221 -> 222 ;
223 [label="Humidity <= 73.1\nmse = 1.2\nsamples = 3\nvalue = 50.7"] ;
221 -> 223 ;
224 [label="mse = 0.0\nsamples = 1\nvalue = 53.0"] ;
223 -> 224 ;
225 [label="SO2 <= 4.0\nmse = 0.2\nsamples = 2\nvalue = 50.2"] ;
223 -> 225 ;
226 [label="mse = 0.0\nsamples = 1\nvalue = 50.0"] ;
225 -> 226 ;
227 [label="mse = 0.0\nsamples = 1\nvalue = 51.0"] ;
225 -> 227 ;
228 [label="mse = 0.0\nsamples = 1\nvalue = 36.0"] ;
220 -> 228 ;
229 [label="Humidity <= 75.1\nmse = 71.8\nsamples = 12\nvalue = 49.6"] ;
189 -> 229 ;
230 [label="CH4 <= 1.9\nmse = 35.8\nsamples = 7\nvalue = 43.4"] ;
229 -> 230 ;
231 [label="Humidity <= 70.6\nmse = 13.8\nsamples = 5\nvalue = 41.0"] ;
230 -> 231 ;
232 [label="CH4 <= 0.9\nmse = 1.7\nsamples = 2\nvalue = 37.8"] ;
231 -> 232 ;
233 [label="mse = 0.0\nsamples = 1\nvalue = 40.0"] ;
232 -> 233 ;
234 [label="mse = 0.0\nsamples = 1\nvalue = 37.0"] ;
232 -> 234 ;
235 [label="SO2 <= 4.4\nmse = 4.7\nsamples = 3\nvalue = 44.2"] ;
231 -> 235 ;
236 [label="mse = 0.0\nsamples = 1\nvalue = 48.0"] ;
235 -> 236 ;
237 [label="mse = 0.0\nsamples = 2\nvalue = 43.0"] ;
235 -> 237 ;
238 [label="NO2 <= 16.3\nmse = 9.0\nsamples = 2\nvalue = 53.0"] ;
230 -> 238 ;
239 [label="mse = 0.0\nsamples = 1\nvalue = 56.0"] ;
238 -> 239 ;
240 [label="mse = 0.0\nsamples = 1\nvalue = 50.0"] ;
238 -> 240 ;
241 [label="SO2 <= 3.1\nmse = 8.2\nsamples = 5\nvalue = 57.4"] ;
229 -> 241 ;
242 [label="SO2 <= 2.1\nmse = 1.6\nsamples = 3\nvalue = 56.0"] ;
241 -> 242 ;
243 [label="mse = 0.0\nsamples = 1\nvalue = 58.0"] ;
242 -> 243 ;
244 [label="NO <= 4.3\nmse = 0.8\nsamples = 2\nvalue = 55.5"] ;
242 -> 244 ;
245 [label="mse = 0.0\nsamples = 1\nvalue = 56.0"] ;
244 -> 245 ;
246 [label="mse = 0.0\nsamples = 1\nvalue = 54.0"] ;
244 -> 246 ;
247 [label="Humidity <= 75.6\nmse = 10.9\nsamples = 2\nvalue = 59.7"] ;
241 -> 247 ;
248 [label="mse = 0.0\nsamples = 1\nvalue = 55.0"] ;
247 -> 248 ;
249 [label="mse = 0.0\nsamples = 1\nvalue = 62.0"] ;
247 -> 249 ;
250 [label="CO <= 0.4\nmse = 38.1\nsamples = 41\nvalue = 27.4"] ;
160 -> 250 ;
251 [label="NO2 <= 6.0\nmse = 27.1\nsamples = 14\nvalue = 22.1"] ;
250 -> 251 ;
252 [label="mse = 0.0\nsamples = 1\nvalue = 0.0"] ;
251 -> 252 ;
253 [label="CH4 <= 1.9\nmse = 4.0\nsamples = 13\nvalue = 23.2"] ;
251 -> 253 ;
254 [label="O3 <= 32.1\nmse = 1.7\nsamples = 8\nvalue = 24.1"] ;
253 -> 254 ;
255 [label="mse = 0.0\nsamples = 1\nvalue = 22.0"] ;
254 -> 255 ;
256 [label="WindSpeed <= 2.2\nmse = 1.2\nsamples = 7\nvalue = 24.5"] ;
254 -> 256 ;
257 [label="NO2 <= 6.8\nmse = 0.6\nsamples = 4\nvalue = 25.1"] ;
256 -> 257 ;
258 [label="mse = 0.0\nsamples = 1\nvalue = 27.0"] ;
257 -> 258 ;
259 [label="O3 <= 35.1\nmse = 0.1\nsamples = 3\nvalue = 24.9"] ;
257 -> 259 ;
260 [label="mse = 0.0\nsamples = 1\nvalue = 24.0"] ;
259 -> 260 ;
261 [label="mse = 0.0\nsamples = 2\nvalue = 25.0"] ;
259 -> 261 ;
262 [label="NMHC <= 0.0\nmse = 0.2\nsamples = 3\nvalue = 23.4"] ;
256 -> 262 ;
263 [label="mse = 0.0\nsamples = 2\nvalue = 24.0"] ;
262 -> 263 ;
264 [label="mse = 0.0\nsamples = 1\nvalue = 23.0"] ;
262 -> 264 ;
265 [label="NMHC <= 0.1\nmse = 1.8\nsamples = 5\nvalue = 20.8"] ;
253 -> 265 ;
266 [label="Humidity <= 70.9\nmse = 0.2\nsamples = 4\nvalue = 21.4"] ;
265 -> 266 ;
267 [label="mse = 0.0\nsamples = 1\nvalue = 22.0"] ;
266 -> 267 ;
268 [label="mse = 0.0\nsamples = 3\nvalue = 21.0"] ;
266 -> 268 ;
269 [label="mse = 0.0\nsamples = 1\nvalue = 18.0"] ;
265 -> 269 ;
270 [label="O3 <= 43.5\nmse = 21.1\nsamples = 27\nvalue = 30.2"] ;
250 -> 270 ;
271 [label="WindSpeed <= 2.1\nmse = 13.9\nsamples = 22\nvalue = 28.7"] ;
270 -> 271 ;
272 [label="Nox <= 12.0\nmse = 10.3\nsamples = 16\nvalue = 27.5"] ;
271 -> 272 ;
273 [label="CO <= 0.4\nmse = 2.2\nsamples = 2\nvalue = 33.5"] ;
272 -> 273 ;
274 [label="mse = 0.0\nsamples = 1\nvalue = 35.0"] ;
273 -> 274 ;
275 [label="mse = 0.0\nsamples = 1\nvalue = 32.0"] ;
273 -> 275 ;
276 [label="O3 <= 38.7\nmse = 7.5\nsamples = 14\nvalue = 27.0"] ;
272 -> 276 ;
277 [label="O3 <= 35.1\nmse = 6.6\nsamples = 10\nvalue = 25.7"] ;
276 -> 277 ;
278 [label="O3 <= 33.5\nmse = 3.6\nsamples = 5\nvalue = 27.9"] ;
277 -> 278 ;
279 [label="NO <= 2.3\nmse = 2.0\nsamples = 2\nvalue = 26.0"] ;
278 -> 279 ;
280 [label="mse = 0.0\nsamples = 1\nvalue = 24.0"] ;
279 -> 280 ;
281 [label="mse = 0.0\nsamples = 1\nvalue = 27.0"] ;
279 -> 281 ;
282 [label="WindSpeed <= 0.7\nmse = 0.2\nsamples = 3\nvalue = 29.2"] ;
278 -> 282 ;
283 [label="mse = 0.0\nsamples = 1\nvalue = 30.0"] ;
282 -> 283 ;
284 [label="mse = 0.0\nsamples = 2\nvalue = 29.0"] ;
282 -> 284 ;
285 [label="TEMP <= 26.7\nmse = 0.5\nsamples = 5\nvalue = 23.6"] ;
277 -> 285 ;
286 [label="CO <= 0.4\nmse = 0.2\nsamples = 2\nvalue = 22.5"] ;
285 -> 286 ;
287 [label="mse = 0.0\nsamples = 1\nvalue = 23.0"] ;
286 -> 287 ;
288 [label="mse = 0.0\nsamples = 1\nvalue = 22.0"] ;
286 -> 288 ;
289 [label="mse = 0.0\nsamples = 3\nvalue = 24.0"] ;
285 -> 289 ;
290 [label="Nox <= 17.0\nmse = 1.2\nsamples = 4\nvalue = 29.2"] ;
276 -> 290 ;
291 [label="TEMP <= 26.6\nmse = 0.2\nsamples = 2\nvalue = 28.2"] ;
290 -> 291 ;
292 [label="mse = 0.0\nsamples = 1\nvalue = 28.0"] ;
291 -> 292 ;
293 [label="mse = 0.0\nsamples = 1\nvalue = 29.0"] ;
291 -> 293 ;
294 [label="Humidity <= 75.5\nmse = 0.2\nsamples = 2\nvalue = 30.2"] ;
290 -> 294 ;
295 [label="mse = 0.0\nsamples = 1\nvalue = 30.0"] ;
294 -> 295 ;
296 [label="mse = 0.0\nsamples = 1\nvalue = 31.0"] ;
294 -> 296 ;
297 [label="NO <= 2.0\nmse = 9.7\nsamples = 6\nvalue = 31.9"] ;
271 -> 297 ;
298 [label="O3 <= 41.4\nmse = 2.2\nsamples = 2\nvalue = 26.5"] ;
297 -> 298 ;
299 [label="mse = 0.0\nsamples = 1\nvalue = 28.0"] ;
298 -> 299 ;
300 [label="mse = 0.0\nsamples = 1\nvalue = 25.0"] ;
298 -> 300 ;
301 [label="NO2 <= 14.5\nmse = 1.1\nsamples = 4\nvalue = 33.4"] ;
297 -> 301 ;
302 [label="mse = 0.0\nsamples = 1\nvalue = 31.0"] ;
301 -> 302 ;
303 [label="TEMP <= 24.2\nmse = 0.1\nsamples = 3\nvalue = 33.8"] ;
301 -> 303 ;
304 [label="mse = 0.0\nsamples = 1\nvalue = 33.0"] ;
303 -> 304 ;
305 [label="mse = 0.0\nsamples = 2\nvalue = 34.0"] ;
303 -> 305 ;
306 [label="WindSpeed <= 2.0\nmse = 2.2\nsamples = 5\nvalue = 36.5"] ;
270 -> 306 ;
307 [label="NO2 <= 15.7\nmse = 1.4\nsamples = 3\nvalue = 35.6"] ;
306 -> 307 ;
308 [label="mse = 0.0\nsamples = 1\nvalue = 38.0"] ;
307 -> 308 ;
309 [label="mse = 0.0\nsamples = 2\nvalue = 35.0"] ;
307 -> 309 ;
310 [label="mse = 0.0\nsamples = 2\nvalue = 38.0"] ;
306 -> 310 ;
311 [label="O3 <= 27.8\nmse = 24.7\nsamples = 134\nvalue = 12.8"] ;
1 -> 311 ;
312 [label="Humidity <= 80.7\nmse = 13.6\nsamples = 90\nvalue = 10.7"] ;
311 -> 312 ;
313 [label="NO2 <= 11.9\nmse = 11.4\nsamples = 79\nvalue = 11.3"] ;
312 -> 313 ;
314 [label="O3 <= 22.2\nmse = 12.2\nsamples = 44\nvalue = 10.0"] ;
313 -> 314 ;
315 [label="TEMP <= 30.7\nmse = 8.9\nsamples = 26\nvalue = 8.2"] ;
314 -> 315 ;
316 [label="Humidity <= 80.4\nmse = 7.0\nsamples = 25\nvalue = 8.0"] ;
315 -> 316 ;
317 [label="SO2 <= 4.8\nmse = 5.8\nsamples = 24\nvalue = 7.8"] ;
316 -> 317 ;
318 [label="TEMP <= 29.1\nmse = 4.9\nsamples = 21\nvalue = 8.2"] ;
317 -> 318 ;
319 [label="SO2 <= 3.4\nmse = 20.0\nsamples = 4\nvalue = 6.0"] ;
318 -> 319 ;
320 [label="O3 <= 21.4\nmse = 4.0\nsamples = 2\nvalue = 2.0"] ;
319 -> 320 ;
321 [label="mse = 0.0\nsamples = 1\nvalue = 0.0"] ;
320 -> 321 ;
322 [label="mse = 0.0\nsamples = 1\nvalue = 4.0"] ;
320 -> 322 ;
323 [label="SO2 <= 3.8\nmse = 4.0\nsamples = 2\nvalue = 10.0"] ;
319 -> 323 ;
324 [label="mse = 0.0\nsamples = 1\nvalue = 8.0"] ;
323 -> 324 ;
325 [label="mse = 0.0\nsamples = 1\nvalue = 12.0"] ;
323 -> 325 ;
326 [label="THC <= 1.9\nmse = 1.8\nsamples = 17\nvalue = 8.6"] ;
318 -> 326 ;
327 [label="WindSpeed <= 2.6\nmse = 2.1\nsamples = 7\nvalue = 9.5"] ;
326 -> 327 ;
328 [label="Humidity <= 73.6\nmse = 1.0\nsamples = 6\nvalue = 9.8"] ;
327 -> 328 ;
329 [label="CH4 <= 1.8\nmse = 0.2\nsamples = 4\nvalue = 9.4"] ;
328 -> 329 ;
330 [label="mse = 0.0\nsamples = 3\nvalue = 9.0"] ;
329 -> 330 ;
331 [label="mse = 0.0\nsamples = 1\nvalue = 10.0"] ;
329 -> 331 ;
332 [label="CO <= 0.2\nmse = 0.2\nsamples = 2\nvalue = 11.5"] ;
328 -> 332 ;
333 [label="mse = 0.0\nsamples = 1\nvalue = 11.0"] ;
332 -> 333 ;
334 [label="mse = 0.0\nsamples = 1\nvalue = 12.0"] ;
332 -> 334 ;
335 [label="mse = 0.0\nsamples = 1\nvalue = 6.0"] ;
327 -> 335 ;
336 [label="TEMP <= 29.6\nmse = 0.7\nsamples = 10\nvalue = 7.9"] ;
326 -> 336 ;
337 [label="Humidity <= 76.5\nmse = 0.2\nsamples = 3\nvalue = 7.3"] ;
336 -> 337 ;
338 [label="mse = 0.0\nsamples = 2\nvalue = 7.0"] ;
337 -> 338 ;
339 [label="mse = 0.0\nsamples = 1\nvalue = 8.0"] ;
337 -> 339 ;
340 [label="THC <= 1.9\nmse = 0.6\nsamples = 7\nvalue = 8.3"] ;
336 -> 340 ;
341 [label="mse = 0.0\nsamples = 1\nvalue = 7.0"] ;
340 -> 341 ;
342 [label="WindSpeed <= 2.2\nmse = 0.2\nsamples = 6\nvalue = 8.6"] ;
340 -> 342 ;
343 [label="CH4 <= 1.9\nmse = 0.2\nsamples = 3\nvalue = 8.2"] ;
342 -> 343 ;
344 [label="mse = 0.0\nsamples = 2\nvalue = 8.0"] ;
343 -> 344 ;
345 [label="mse = 0.0\nsamples = 1\nvalue = 9.0"] ;
343 -> 345 ;
346 [label="mse = 0.0\nsamples = 3\nvalue = 9.0"] ;
342 -> 346 ;
347 [label="TEMP <= 30.3\nmse = 3.8\nsamples = 3\nvalue = 5.2"] ;
317 -> 347 ;
348 [label="TEMP <= 29.8\nmse = 0.9\nsamples = 2\nvalue = 6.7"] ;
347 -> 348 ;
349 [label="mse = 0.0\nsamples = 1\nvalue = 8.0"] ;
348 -> 349 ;
350 [label="mse = 0.0\nsamples = 1\nvalue = 6.0"] ;
348 -> 350 ;
351 [label="mse = 0.0\nsamples = 1\nvalue = 3.0"] ;
347 -> 351 ;
352 [label="mse = 0.0\nsamples = 1\nvalue = 15.0"] ;
316 -> 352 ;
353 [label="mse = 0.0\nsamples = 1\nvalue = 17.0"] ;
315 -> 353 ;
354 [label="WindSpeed <= 1.2\nmse = 7.3\nsamples = 18\nvalue = 12.3"] ;
314 -> 354 ;
355 [label="mse = 0.0\nsamples = 1\nvalue = 18.0"] ;
354 -> 355 ;
356 [label="CH4 <= 0.9\nmse = 5.3\nsamples = 17\nvalue = 11.9"] ;
354 -> 356 ;
357 [label="TEMP <= 28.3\nmse = 4.8\nsamples = 10\nvalue = 10.6"] ;
356 -> 357 ;
358 [label="WindSpeed <= 2.1\nmse = 1.6\nsamples = 3\nvalue = 13.3"] ;
357 -> 358 ;
359 [label="CO <= 0.3\nmse = 0.2\nsamples = 2\nvalue = 12.5"] ;
358 -> 359 ;
360 [label="mse = 0.0\nsamples = 1\nvalue = 12.0"] ;
359 -> 360 ;
361 [label="mse = 0.0\nsamples = 1\nvalue = 13.0"] ;
359 -> 361 ;
362 [label="mse = 0.0\nsamples = 1\nvalue = 15.0"] ;
358 -> 362 ;
363 [label="WindSpeed <= 2.7\nmse = 3.1\nsamples = 7\nvalue = 9.8"] ;
357 -> 363 ;
364 [label="Humidity <= 79.1\nmse = 1.8\nsamples = 6\nvalue = 10.2"] ;
363 -> 364 ;
365 [label="mse = 0.0\nsamples = 4\nvalue = 11.0"] ;
364 -> 365 ;
366 [label="Nox <= 8.5\nmse = 0.9\nsamples = 2\nvalue = 8.3"] ;
364 -> 366 ;
367 [label="mse = 0.0\nsamples = 1\nvalue = 7.0"] ;
366 -> 367 ;
368 [label="mse = 0.0\nsamples = 1\nvalue = 9.0"] ;
366 -> 368 ;
369 [label="mse = 0.0\nsamples = 1\nvalue = 6.0"] ;
363 -> 369 ;
370 [label="Humidity <= 77.5\nmse = 2.4\nsamples = 7\nvalue = 13.1"] ;
356 -> 370 ;
371 [label="NO <= 2.4\nmse = 0.6\nsamples = 4\nvalue = 11.5"] ;
370 -> 371 ;
372 [label="Humidity <= 73.6\nmse = 0.2\nsamples = 2\nvalue = 12.5"] ;
371 -> 372 ;
373 [label="mse = 0.0\nsamples = 1\nvalue = 12.0"] ;
372 -> 373 ;
374 [label="mse = 0.0\nsamples = 1\nvalue = 13.0"] ;
372 -> 374 ;
375 [label="mse = 0.0\nsamples = 2\nvalue = 11.0"] ;
371 -> 375 ;
376 [label="Humidity <= 79.8\nmse = 0.2\nsamples = 3\nvalue = 14.4"] ;
370 -> 376 ;
377 [label="mse = 0.0\nsamples = 2\nvalue = 14.0"] ;
376 -> 377 ;
378 [label="mse = 0.0\nsamples = 1\nvalue = 15.0"] ;
376 -> 378 ;
379 [label="TEMP <= 30.0\nmse = 6.1\nsamples = 35\nvalue = 12.9"] ;
313 -> 379 ;
380 [label="Humidity <= 76.1\nmse = 4.8\nsamples = 27\nvalue = 12.2"] ;
379 -> 380 ;
381 [label="NMHC <= 0.3\nmse = 3.2\nsamples = 10\nvalue = 13.7"] ;
380 -> 381 ;
382 [label="WindSpeed <= 1.8\nmse = 1.1\nsamples = 9\nvalue = 13.3"] ;
381 -> 382 ;
383 [label="NMHC <= 0.1\nmse = 0.6\nsamples = 7\nvalue = 13.6"] ;
382 -> 383 ;
384 [label="Nox <= 17.5\nmse = 0.2\nsamples = 2\nvalue = 12.7"] ;
383 -> 384 ;
385 [label="mse = 0.0\nsamples = 1\nvalue = 13.0"] ;
384 -> 385 ;
386 [label="mse = 0.0\nsamples = 1\nvalue = 12.0"] ;
384 -> 386 ;
387 [label="NMHC <= 0.2\nmse = 0.2\nsamples = 5\nvalue = 14.0"] ;
383 -> 387 ;
388 [label="WindSpeed <= 1.0\nmse = 0.1\nsamples = 4\nvalue = 13.9"] ;
387 -> 388 ;
389 [label="mse = 0.0\nsamples = 1\nvalue = 13.0"] ;
388 -> 389 ;
390 [label="mse = 0.0\nsamples = 3\nvalue = 14.0"] ;
388 -> 390 ;
391 [label="mse = 0.0\nsamples = 1\nvalue = 15.0"] ;
387 -> 391 ;
392 [label="NMHC <= 0.1\nmse = 0.2\nsamples = 2\nvalue = 11.5"] ;
382 -> 392 ;
393 [label="mse = 0.0\nsamples = 1\nvalue = 11.0"] ;
392 -> 393 ;
394 [label="mse = 0.0\nsamples = 1\nvalue = 12.0"] ;
392 -> 394 ;
395 [label="mse = 0.0\nsamples = 1\nvalue = 19.0"] ;
381 -> 395 ;
396 [label="WindSpeed <= 1.9\nmse = 3.9\nsamples = 17\nvalue = 11.4"] ;
380 -> 396 ;
397 [label="CO <= 0.4\nmse = 2.7\nsamples = 9\nvalue = 10.3"] ;
396 -> 397 ;
398 [label="CO <= 0.4\nmse = 0.2\nsamples = 5\nvalue = 8.4"] ;
397 -> 398 ;
399 [label="mse = 0.0\nsamples = 3\nvalue = 8.0"] ;
398 -> 399 ;
400 [label="mse = 0.0\nsamples = 2\nvalue = 9.0"] ;
398 -> 400 ;
401 [label="O3 <= 12.0\nmse = 0.5\nsamples = 4\nvalue = 11.5"] ;
397 -> 401 ;
402 [label="mse = 0.0\nsamples = 2\nvalue = 12.0"] ;
401 -> 402 ;
403 [label="TEMP <= 29.3\nmse = 0.2\nsamples = 2\nvalue = 10.7"] ;
401 -> 403 ;
404 [label="mse = 0.0\nsamples = 1\nvalue = 11.0"] ;
403 -> 404 ;
405 [label="mse = 0.0\nsamples = 1\nvalue = 10.0"] ;
403 -> 405 ;
406 [label="Humidity <= 78.4\nmse = 3.1\nsamples = 8\nvalue = 12.3"] ;
396 -> 406 ;
407 [label="NO2 <= 13.6\nmse = 1.0\nsamples = 5\nvalue = 14.0"] ;
406 -> 407 ;
408 [label="mse = 0.0\nsamples = 2\nvalue = 13.0"] ;
407 -> 408 ;
409 [label="mse = 0.0\nsamples = 3\nvalue = 15.0"] ;
407 -> 409 ;
410 [label="NMHC <= 0.2\nmse = 0.2\nsamples = 3\nvalue = 10.8"] ;
406 -> 410 ;
411 [label="mse = 0.0\nsamples = 2\nvalue = 11.0"] ;
410 -> 411 ;
412 [label="mse = 0.0\nsamples = 1\nvalue = 10.0"] ;
410 -> 412 ;
413 [label="Humidity <= 73.9\nmse = 3.3\nsamples = 8\nvalue = 15.2"] ;
379 -> 413 ;
414 [label="NO <= 3.1\nmse = 1.0\nsamples = 4\nvalue = 13.2"] ;
413 -> 414 ;
415 [label="NO <= 2.9\nmse = 0.2\nsamples = 3\nvalue = 12.8"] ;
414 -> 415 ;
416 [label="mse = 0.0\nsamples = 2\nvalue = 13.0"] ;
415 -> 416 ;
417 [label="mse = 0.0\nsamples = 1\nvalue = 12.0"] ;
415 -> 417 ;
418 [label="mse = 0.0\nsamples = 1\nvalue = 15.0"] ;
414 -> 418 ;
419 [label="NO <= 4.0\nmse = 0.5\nsamples = 4\nvalue = 16.5"] ;
413 -> 419 ;
420 [label="mse = 0.0\nsamples = 2\nvalue = 17.0"] ;
419 -> 420 ;
421 [label="TEMP <= 30.5\nmse = 0.2\nsamples = 2\nvalue = 15.7"] ;
419 -> 421 ;
422 [label="mse = 0.0\nsamples = 1\nvalue = 15.0"] ;
421 -> 422 ;
423 [label="mse = 0.0\nsamples = 1\nvalue = 16.0"] ;
421 -> 423 ;
424 [label="WindSpeed <= 2.2\nmse = 12.4\nsamples = 11\nvalue = 7.5"] ;
312 -> 424 ;
425 [label="WindSpeed <= 1.6\nmse = 9.9\nsamples = 9\nvalue = 8.1"] ;
424 -> 425 ;
426 [label="THC <= 1.0\nmse = 11.3\nsamples = 3\nvalue = 5.1"] ;
425 -> 426 ;
427 [label="mse = 0.0\nsamples = 1\nvalue = 0.0"] ;
426 -> 427 ;
428 [label="CO <= 0.5\nmse = 1.0\nsamples = 2\nvalue = 7.2"] ;
426 -> 428 ;
429 [label="mse = 0.0\nsamples = 1\nvalue = 8.0"] ;
428 -> 429 ;
430 [label="mse = 0.0\nsamples = 1\nvalue = 6.0"] ;
428 -> 430 ;
431 [label="WindSpeed <= 1.9\nmse = 2.5\nsamples = 6\nvalue = 9.6"] ;
425 -> 431 ;
432 [label="CO <= 0.2\nmse = 1.5\nsamples = 3\nvalue = 11.2"] ;
431 -> 432 ;
433 [label="mse = 0.0\nsamples = 1\nvalue = 10.0"] ;
432 -> 433 ;
434 [label="O3 <= 20.7\nmse = 0.2\nsamples = 2\nvalue = 12.3"] ;
432 -> 434 ;
435 [label="mse = 0.0\nsamples = 1\nvalue = 13.0"] ;
434 -> 435 ;
436 [label="mse = 0.0\nsamples = 1\nvalue = 12.0"] ;
434 -> 436 ;
437 [label="Humidity <= 86.4\nmse = 0.2\nsamples = 3\nvalue = 8.5"] ;
431 -> 437 ;
438 [label="mse = 0.0\nsamples = 2\nvalue = 9.0"] ;
437 -> 438 ;
439 [label="mse = 0.0\nsamples = 1\nvalue = 8.0"] ;
437 -> 439 ;
440 [label="O3 <= 21.3\nmse = 3.6\nsamples = 2\nvalue = 2.7"] ;
424 -> 440 ;
441 [label="mse = 0.0\nsamples = 1\nvalue = 4.0"] ;
440 -> 441 ;
442 [label="mse = 0.0\nsamples = 1\nvalue = 0.0"] ;
440 -> 442 ;
443 [label="NO2 <= 5.9\nmse = 16.2\nsamples = 44\nvalue = 17.6"] ;
311 -> 443 ;
444 [label="Nox <= 5.5\nmse = 2.7\nsamples = 5\nvalue = 12.0"] ;
443 -> 444 ;
445 [label="mse = 0.0\nsamples = 1\nvalue = 10.0"] ;
444 -> 445 ;
446 [label="NO <= 1.3\nmse = 1.0\nsamples = 4\nvalue = 13.0"] ;
444 -> 446 ;
447 [label="TEMP <= 29.3\nmse = 0.2\nsamples = 3\nvalue = 12.6"] ;
446 -> 447 ;
448 [label="mse = 0.0\nsamples = 2\nvalue = 13.0"] ;
447 -> 448 ;
449 [label="mse = 0.0\nsamples = 1\nvalue = 12.0"] ;
447 -> 449 ;
450 [label="mse = 0.0\nsamples = 1\nvalue = 15.0"] ;
446 -> 450 ;
451 [label="THC <= 2.0\nmse = 12.6\nsamples = 39\nvalue = 18.5"] ;
443 -> 451 ;
452 [label="Humidity <= 75.2\nmse = 13.1\nsamples = 12\nvalue = 16.3"] ;
451 -> 452 ;
453 [label="TEMP <= 29.1\nmse = 1.8\nsamples = 3\nvalue = 13.5"] ;
452 -> 453 ;
454 [label="mse = 0.0\nsamples = 2\nvalue = 14.0"] ;
453 -> 454 ;
455 [label="mse = 0.0\nsamples = 1\nvalue = 10.0"] ;
453 -> 455 ;
456 [label="CH4 <= 1.8\nmse = 12.0\nsamples = 9\nvalue = 18.2"] ;
452 -> 456 ;
457 [label="NO <= 2.5\nmse = 9.3\nsamples = 8\nvalue = 18.7"] ;
456 -> 457 ;
458 [label="Nox <= 14.5\nmse = 0.9\nsamples = 2\nvalue = 21.7"] ;
457 -> 458 ;
459 [label="mse = 0.0\nsamples = 1\nvalue = 23.0"] ;
458 -> 459 ;
460 [label="mse = 0.0\nsamples = 1\nvalue = 21.0"] ;
458 -> 460 ;
461 [label="WindSpeed <= 1.8\nmse = 8.0\nsamples = 6\nvalue = 17.6"] ;
457 -> 461 ;
462 [label="Humidity <= 77.9\nmse = 0.2\nsamples = 2\nvalue = 21.5"] ;
461 -> 462 ;
463 [label="mse = 0.0\nsamples = 1\nvalue = 22.0"] ;
462 -> 463 ;
464 [label="mse = 0.0\nsamples = 1\nvalue = 21.0"] ;
462 -> 464 ;
465 [label="WindSpeed <= 2.1\nmse = 3.9\nsamples = 4\nvalue = 16.3"] ;
461 -> 465 ;
466 [label="NO2 <= 13.3\nmse = 0.2\nsamples = 3\nvalue = 17.2"] ;
465 -> 466 ;
467 [label="mse = 0.0\nsamples = 1\nvalue = 18.0"] ;
466 -> 467 ;
468 [label="mse = 0.0\nsamples = 2\nvalue = 17.0"] ;
466 -> 468 ;
469 [label="mse = 0.0\nsamples = 1\nvalue = 12.0"] ;
465 -> 469 ;
470 [label="mse = 0.0\nsamples = 1\nvalue = 12.0"] ;
456 -> 470 ;
471 [label="Humidity <= 82.5\nmse = 8.4\nsamples = 27\nvalue = 19.7"] ;
451 -> 471 ;
472 [label="Humidity <= 77.4\nmse = 6.2\nsamples = 26\nvalue = 19.4"] ;
471 -> 472 ;
473 [label="TEMP <= 28.3\nmse = 5.0\nsamples = 19\nvalue = 20.0"] ;
472 -> 473 ;
474 [label="TEMP <= 28.1\nmse = 0.2\nsamples = 2\nvalue = 23.7"] ;
473 -> 474 ;
475 [label="mse = 0.0\nsamples = 1\nvalue = 23.0"] ;
474 -> 475 ;
476 [label="mse = 0.0\nsamples = 1\nvalue = 24.0"] ;
474 -> 476 ;
477 [label="O3 <= 36.6\nmse = 3.9\nsamples = 17\nvalue = 19.6"] ;
473 -> 477 ;
478 [label="NMHC <= 0.2\nmse = 3.1\nsamples = 12\nvalue = 20.6"] ;
477 -> 478 ;
479 [label="CO <= 0.5\nmse = 1.2\nsamples = 11\nvalue = 20.9"] ;
478 -> 479 ;
480 [label="NO <= 2.7\nmse = 0.7\nsamples = 10\nvalue = 21.2"] ;
479 -> 480 ;
481 [label="THC <= 2.1\nmse = 0.2\nsamples = 4\nvalue = 20.6"] ;
480 -> 481 ;
482 [label="mse = 0.0\nsamples = 2\nvalue = 21.0"] ;
481 -> 482 ;
483 [label="mse = 0.0\nsamples = 2\nvalue = 20.0"] ;
481 -> 483 ;
484 [label="CO <= 0.3\nmse = 0.4\nsamples = 6\nvalue = 21.9"] ;
480 -> 484 ;
485 [label="mse = 0.0\nsamples = 1\nvalue = 23.0"] ;
484 -> 485 ;
486 [label="TEMP <= 29.4\nmse = 0.2\nsamples = 5\nvalue = 21.7"] ;
484 -> 486 ;
487 [label="mse = 0.0\nsamples = 3\nvalue = 22.0"] ;
486 -> 487 ;
488 [label="mse = 0.0\nsamples = 2\nvalue = 21.0"] ;
486 -> 488 ;
489 [label="mse = 0.0\nsamples = 1\nvalue = 19.0"] ;
479 -> 489 ;
490 [label="mse = 0.0\nsamples = 1\nvalue = 15.0"] ;
478 -> 490 ;
491 [label="O3 <= 37.5\nmse = 1.2\nsamples = 5\nvalue = 18.0"] ;
477 -> 491 ;
492 [label="mse = 0.0\nsamples = 1\nvalue = 16.0"] ;
491 -> 492 ;
493 [label="Humidity <= 75.3\nmse = 0.2\nsamples = 4\nvalue = 18.5"] ;
491 -> 493 ;
494 [label="NO2 <= 13.3\nmse = 0.2\nsamples = 3\nvalue = 18.3"] ;
493 -> 494 ;
495 [label="mse = 0.0\nsamples = 2\nvalue = 18.0"] ;
494 -> 495 ;
496 [label="mse = 0.0\nsamples = 1\nvalue = 19.0"] ;
494 -> 496 ;
497 [label="mse = 0.0\nsamples = 1\nvalue = 19.0"] ;
493 -> 497 ;
498 [label="CH4 <= 2.1\nmse = 3.0\nsamples = 7\nvalue = 16.9"] ;
472 -> 498 ;
499 [label="CO <= 0.2\nmse = 0.1\nsamples = 6\nvalue = 16.2"] ;
498 -> 499 ;
500 [label="mse = 0.0\nsamples = 1\nvalue = 17.0"] ;
499 -> 500 ;
501 [label="mse = 0.0\nsamples = 5\nvalue = 16.0"] ;
499 -> 501 ;
502 [label="mse = 0.0\nsamples = 1\nvalue = 21.0"] ;
498 -> 502 ;
503 [label="mse = 0.0\nsamples = 1\nvalue = 29.0"] ;
471 -> 503 ;
504 [label="TEMP <= 9.2\nmse = 155.1\nsamples = 373\nvalue = 46.2"] ;
0 -> 504 [labeldistance=2.5, labelangle=-45, headlabel="False"] ;
505 [label="NO2 <= 25.0\nmse = 128.6\nsamples = 231\nvalue = 52.2"] ;
504 -> 505 ;
506 [label="CO <= 0.4\nmse = 111.4\nsamples = 120\nvalue = 46.9"] ;
505 -> 506 ;
507 [label="NO <= 4.0\nmse = 30.4\nsamples = 15\nvalue = 37.7"] ;
506 -> 507 ;
508 [label="Humidity <= 70.7\nmse = 12.7\nsamples = 9\nvalue = 41.1"] ;
507 -> 508 ;
509 [label="Humidity <= 67.8\nmse = 9.6\nsamples = 3\nvalue = 38.7"] ;
508 -> 509 ;
510 [label="mse = 0.0\nsamples = 1\nvalue = 43.0"] ;
509 -> 510 ;
511 [label="Humidity <= 69.3\nmse = 0.2\nsamples = 2\nvalue = 36.5"] ;
509 -> 511 ;
512 [label="mse = 0.0\nsamples = 1\nvalue = 37.0"] ;
511 -> 512 ;
513 [label="mse = 0.0\nsamples = 1\nvalue = 36.0"] ;
511 -> 513 ;
514 [label="WindSpeed <= 1.0\nmse = 6.1\nsamples = 6\nvalue = 43.1"] ;
508 -> 514 ;
515 [label="NO2 <= 17.9\nmse = 2.0\nsamples = 5\nvalue = 44.0"] ;
514 -> 515 ;
516 [label="THC <= 2.0\nmse = 0.2\nsamples = 2\nvalue = 45.5"] ;
515 -> 516 ;
517 [label="mse = 0.0\nsamples = 1\nvalue = 45.0"] ;
516 -> 517 ;
518 [label="mse = 0.0\nsamples = 1\nvalue = 46.0"] ;
516 -> 518 ;
519 [label="SO2 <= 8.0\nmse = 1.2\nsamples = 3\nvalue = 43.2"] ;
515 -> 519 ;
520 [label="THC <= 2.1\nmse = 0.2\nsamples = 2\nvalue = 42.7"] ;
519 -> 520 ;
521 [label="mse = 0.0\nsamples = 1\nvalue = 43.0"] ;
520 -> 521 ;
522 [label="mse = 0.0\nsamples = 1\nvalue = 42.0"] ;
520 -> 522 ;
523 [label="mse = 0.0\nsamples = 1\nvalue = 45.0"] ;
519 -> 523 ;
524 [label="mse = 0.0\nsamples = 1\nvalue = 38.0"] ;
514 -> 524 ;
525 [label="NO2 <= 17.8\nmse = 20.0\nsamples = 6\nvalue = 33.4"] ;
507 -> 525 ;
526 [label="NO2 <= 17.5\nmse = 2.2\nsamples = 2\nvalue = 25.5"] ;
525 -> 526 ;
527 [label="mse = 0.0\nsamples = 1\nvalue = 24.0"] ;
526 -> 527 ;
528 [label="mse = 0.0\nsamples = 1\nvalue = 27.0"] ;
526 -> 528 ;
529 [label="NO <= 4.8\nmse = 5.0\nsamples = 4\nvalue = 35.4"] ;
525 -> 529 ;
530 [label="mse = 0.0\nsamples = 1\nvalue = 30.0"] ;
529 -> 530 ;
531 [label="SO2 <= 8.4\nmse = 1.0\nsamples = 3\nvalue = 36.1"] ;
529 -> 531 ;
532 [label="mse = 0.0\nsamples = 1\nvalue = 35.0"] ;
531 -> 532 ;
533 [label="mse = 0.0\nsamples = 2\nvalue = 37.0"] ;
531 -> 533 ;
534 [label="NO <= 4.8\nmse = 109.0\nsamples = 105\nvalue = 48.3"] ;
506 -> 534 ;
535 [label="SO2 <= 10.1\nmse = 43.3\nsamples = 64\nvalue = 50.8"] ;
534 -> 535 ;
536 [label="Humidity <= 74.6\nmse = 39.9\nsamples = 63\nvalue = 50.5"] ;
535 -> 536 ;
537 [label="O3 <= 26.0\nmse = 29.0\nsamples = 42\nvalue = 51.8"] ;
536 -> 537 ;
538 [label="mse = 0.0\nsamples = 1\nvalue = 33.0"] ;
537 -> 538 ;
539 [label="SO2 <= 6.1\nmse = 24.4\nsamples = 41\nvalue = 52.1"] ;
537 -> 539 ;
540 [label="CO <= 0.6\nmse = 18.2\nsamples = 23\nvalue = 53.8"] ;
539 -> 540 ;
541 [label="CO <= 0.5\nmse = 13.0\nsamples = 13\nvalue = 51.6"] ;
540 -> 541 ;
542 [label="NMHC <= 0.2\nmse = 9.0\nsamples = 3\nvalue = 56.0"] ;
541 -> 542 ;
543 [label="mse = 0.0\nsamples = 2\nvalue = 53.0"] ;
542 -> 543 ;
544 [label="mse = 0.0\nsamples = 1\nvalue = 59.0"] ;
542 -> 544 ;
545 [label="NO <= 4.7\nmse = 8.4\nsamples = 10\nvalue = 50.6"] ;
541 -> 545 ;
546 [label="NO <= 3.9\nmse = 5.1\nsamples = 9\nvalue = 49.6"] ;
545 -> 546 ;
547 [label="SO2 <= 5.2\nmse = 0.8\nsamples = 6\nvalue = 50.6"] ;
546 -> 547 ;
548 [label="NO2 <= 17.4\nmse = 0.2\nsamples = 4\nvalue = 49.8"] ;
547 -> 548 ;
549 [label="mse = 0.0\nsamples = 1\nvalue = 49.0"] ;
548 -> 549 ;
550 [label="mse = 0.0\nsamples = 3\nvalue = 50.0"] ;
548 -> 550 ;
551 [label="NO2 <= 18.7\nmse = 0.2\nsamples = 2\nvalue = 51.4"] ;
547 -> 551 ;
552 [label="mse = 0.0\nsamples = 1\nvalue = 51.0"] ;
551 -> 552 ;
553 [label="mse = 0.0\nsamples = 1\nvalue = 52.0"] ;
551 -> 553 ;
554 [label="NMHC <= 0.1\nmse = 7.7\nsamples = 3\nvalue = 47.2"] ;
546 -> 554 ;
555 [label="mse = 0.0\nsamples = 1\nvalue = 52.0"] ;
554 -> 555 ;
556 [label="NO <= 4.0\nmse = 0.2\nsamples = 2\nvalue = 45.7"] ;
554 -> 556 ;
557 [label="mse = 0.0\nsamples = 1\nvalue = 45.0"] ;
556 -> 557 ;
558 [label="mse = 0.0\nsamples = 1\nvalue = 46.0"] ;
556 -> 558 ;
559 [label="mse = 0.0\nsamples = 1\nvalue = 55.0"] ;
545 -> 559 ;
560 [label="O3 <= 36.6\nmse = 13.6\nsamples = 10\nvalue = 56.0"] ;
540 -> 560 ;
561 [label="NO2 <= 23.8\nmse = 7.7\nsamples = 8\nvalue = 56.8"] ;
560 -> 561 ;
562 [label="SO2 <= 5.5\nmse = 2.5\nsamples = 6\nvalue = 57.8"] ;
561 -> 562 ;
563 [label="NO <= 3.5\nmse = 0.5\nsamples = 4\nvalue = 56.8"] ;
562 -> 563 ;
564 [label="mse = 0.0\nsamples = 1\nvalue = 56.0"] ;
563 -> 564 ;
565 [label="NMHC <= 0.2\nmse = 0.2\nsamples = 3\nvalue = 57.3"] ;
563 -> 565 ;
566 [label="mse = 0.0\nsamples = 2\nvalue = 57.0"] ;
565 -> 566 ;
567 [label="mse = 0.0\nsamples = 1\nvalue = 58.0"] ;
565 -> 567 ;
568 [label="mse = 0.0\nsamples = 2\nvalue = 60.0"] ;
562 -> 568 ;
569 [label="O3 <= 28.9\nmse = 3.6\nsamples = 2\nvalue = 51.7"] ;
561 -> 569 ;
570 [label="mse = 0.0\nsamples = 1\nvalue = 49.0"] ;
569 -> 570 ;
571 [label="mse = 0.0\nsamples = 1\nvalue = 53.0"] ;
569 -> 571 ;
572 [label="CH4 <= 2.0\nmse = 6.2\nsamples = 2\nvalue = 48.5"] ;
560 -> 572 ;
573 [label="mse = 0.0\nsamples = 1\nvalue = 46.0"] ;
572 -> 573 ;
574 [label="mse = 0.0\nsamples = 1\nvalue = 51.0"] ;
572 -> 574 ;
575 [label="SO2 <= 6.6\nmse = 22.9\nsamples = 18\nvalue = 49.6"] ;
539 -> 575 ;
576 [label="NMHC <= 0.2\nmse = 8.0\nsamples = 5\nvalue = 43.6"] ;
575 -> 576 ;
577 [label="mse = 0.0\nsamples = 1\nvalue = 38.0"] ;
576 -> 577 ;
578 [label="Nox <= 27.5\nmse = 3.2\nsamples = 4\nvalue = 44.5"] ;
576 -> 578 ;
579 [label="O3 <= 37.9\nmse = 1.0\nsamples = 3\nvalue = 43.8"] ;
578 -> 579 ;
580 [label="mse = 0.0\nsamples = 1\nvalue = 43.0"] ;
579 -> 580 ;
581 [label="mse = 0.0\nsamples = 2\nvalue = 45.0"] ;
579 -> 581 ;
582 [label="mse = 0.0\nsamples = 1\nvalue = 48.0"] ;
578 -> 582 ;
583 [label="NO <= 3.0\nmse = 12.2\nsamples = 13\nvalue = 51.5"] ;
575 -> 583 ;
584 [label="mse = 0.0\nsamples = 1\nvalue = 42.0"] ;
583 -> 584 ;
585 [label="NO <= 3.3\nmse = 8.3\nsamples = 12\nvalue = 52.0"] ;
583 -> 585 ;
586 [label="mse = 0.0\nsamples = 1\nvalue = 61.0"] ;
585 -> 586 ;
587 [label="NO2 <= 23.9\nmse = 4.4\nsamples = 11\nvalue = 51.6"] ;
585 -> 587 ;
588 [label="SO2 <= 7.0\nmse = 2.3\nsamples = 8\nvalue = 52.2"] ;
587 -> 588 ;
589 [label="mse = 0.0\nsamples = 1\nvalue = 48.0"] ;
588 -> 589 ;
590 [label="NO2 <= 21.8\nmse = 1.2\nsamples = 7\nvalue = 52.4"] ;
588 -> 590 ;
591 [label="Humidity <= 68.7\nmse = 0.2\nsamples = 2\nvalue = 53.4"] ;
590 -> 591 ;
592 [label="mse = 0.0\nsamples = 1\nvalue = 54.0"] ;
591 -> 592 ;
593 [label="mse = 0.0\nsamples = 1\nvalue = 53.0"] ;
591 -> 593 ;
594 [label="Humidity <= 72.7\nmse = 1.1\nsamples = 5\nvalue = 52.0"] ;
590 -> 594 ;
595 [label="O3 <= 40.5\nmse = 0.2\nsamples = 4\nvalue = 51.6"] ;
594 -> 595 ;
596 [label="mse = 0.0\nsamples = 2\nvalue = 51.0"] ;
595 -> 596 ;
597 [label="mse = 0.0\nsamples = 2\nvalue = 52.0"] ;
595 -> 597 ;
598 [label="mse = 0.0\nsamples = 1\nvalue = 54.0"] ;
594 -> 598 ;
599 [label="NO <= 3.5\nmse = 2.0\nsamples = 3\nvalue = 48.0"] ;
587 -> 599 ;
600 [label="mse = 0.0\nsamples = 1\nvalue = 50.0"] ;
599 -> 600 ;
601 [label="mse = 0.0\nsamples = 2\nvalue = 47.0"] ;
599 -> 601 ;
602 [label="Nox <= 22.5\nmse = 49.7\nsamples = 21\nvalue = 46.5"] ;
536 -> 602 ;
603 [label="NO2 <= 19.4\nmse = 46.7\nsamples = 4\nvalue = 34.2"] ;
602 -> 603 ;
604 [label="CO <= 0.6\nmse = 0.9\nsamples = 3\nvalue = 30.3"] ;
603 -> 604 ;
605 [label="mse = 0.0\nsamples = 1\nvalue = 29.0"] ;
604 -> 605 ;
606 [label="mse = 0.0\nsamples = 2\nvalue = 31.0"] ;
604 -> 606 ;
607 [label="mse = 0.0\nsamples = 1\nvalue = 46.0"] ;
603 -> 607 ;
608 [label="CH4 <= 1.7\nmse = 16.3\nsamples = 17\nvalue = 48.8"] ;
602 -> 608 ;
609 [label="CO <= 0.6\nmse = 6.5\nsamples = 5\nvalue = 52.0"] ;
608 -> 609 ;
610 [label="THC <= 0.9\nmse = 2.0\nsamples = 2\nvalue = 49.0"] ;
609 -> 610 ;
611 [label="mse = 0.0\nsamples = 1\nvalue = 48.0"] ;
610 -> 611 ;
612 [label="mse = 0.0\nsamples = 1\nvalue = 51.0"] ;
610 -> 612 ;
613 [label="CH4 <= 0.8\nmse = 0.6\nsamples = 3\nvalue = 53.8"] ;
609 -> 613 ;
614 [label="NO <= 4.6\nmse = 0.2\nsamples = 2\nvalue = 54.3"] ;
613 -> 614 ;
615 [label="mse = 0.0\nsamples = 1\nvalue = 55.0"] ;
614 -> 615 ;
616 [label="mse = 0.0\nsamples = 1\nvalue = 54.0"] ;
614 -> 616 ;
617 [label="mse = 0.0\nsamples = 1\nvalue = 53.0"] ;
613 -> 617 ;
618 [label="Humidity <= 76.2\nmse = 12.3\nsamples = 12\nvalue = 46.8"] ;
608 -> 618 ;
619 [label="Humidity <= 74.9\nmse = 11.6\nsamples = 7\nvalue = 45.1"] ;
618 -> 619 ;
620 [label="CO <= 0.6\nmse = 0.2\nsamples = 2\nvalue = 49.5"] ;
619 -> 620 ;
621 [label="mse = 0.0\nsamples = 1\nvalue = 49.0"] ;
620 -> 621 ;
622 [label="mse = 0.0\nsamples = 1\nvalue = 50.0"] ;
620 -> 622 ;
623 [label="CH4 <= 2.0\nmse = 6.9\nsamples = 5\nvalue = 43.7"] ;
619 -> 623 ;
624 [label="O3 <= 37.6\nmse = 3.0\nsamples = 4\nvalue = 44.6"] ;
623 -> 624 ;
625 [label="NMHC <= 0.3\nmse = 0.2\nsamples = 3\nvalue = 43.8"] ;
624 -> 625 ;
626 [label="mse = 0.0\nsamples = 2\nvalue = 44.0"] ;
625 -> 626 ;
627 [label="mse = 0.0\nsamples = 1\nvalue = 43.0"] ;
625 -> 627 ;
628 [label="mse = 0.0\nsamples = 1\nvalue = 48.0"] ;
624 -> 628 ;
629 [label="mse = 0.0\nsamples = 1\nvalue = 39.0"] ;
623 -> 629 ;
630 [label="CO <= 0.5\nmse = 1.0\nsamples = 5\nvalue = 49.6"] ;
618 -> 630 ;
631 [label="Humidity <= 79.4\nmse = 0.2\nsamples = 2\nvalue = 48.5"] ;
630 -> 631 ;
632 [label="mse = 0.0\nsamples = 1\nvalue = 48.0"] ;
631 -> 632 ;
633 [label="mse = 0.0\nsamples = 1\nvalue = 49.0"] ;
631 -> 633 ;
634 [label="O3 <= 29.1\nmse = 0.2\nsamples = 3\nvalue = 50.3"] ;
630 -> 634 ;
635 [label="mse = 0.0\nsamples = 1\nvalue = 51.0"] ;
634 -> 635 ;
636 [label="mse = 0.0\nsamples = 2\nvalue = 50.0"] ;
634 -> 636 ;
637 [label="mse = 0.0\nsamples = 1\nvalue = 65.0"] ;
535 -> 637 ;
638 [label="NO <= 4.9\nmse = 193.1\nsamples = 41\nvalue = 44.1"] ;
534 -> 638 ;
639 [label="mse = 0.0\nsamples = 1\nvalue = 0.0"] ;
638 -> 639 ;
640 [label="NO2 <= 19.8\nmse = 128.2\nsamples = 40\nvalue = 45.7"] ;
638 -> 640 ;
641 [label="Humidity <= 78.3\nmse = 18.1\nsamples = 4\nvalue = 26.2"] ;
640 -> 641 ;
642 [label="mse = 0.0\nsamples = 1\nvalue = 32.0"] ;
641 -> 642 ;
643 [label="Humidity <= 82.4\nmse = 1.7\nsamples = 3\nvalue = 23.2"] ;
641 -> 643 ;
644 [label="O3 <= 27.4\nmse = 0.2\nsamples = 2\nvalue = 24.5"] ;
643 -> 644 ;
645 [label="mse = 0.0\nsamples = 1\nvalue = 24.0"] ;
644 -> 645 ;
646 [label="mse = 0.0\nsamples = 1\nvalue = 25.0"] ;
644 -> 646 ;
647 [label="mse = 0.0\nsamples = 1\nvalue = 22.0"] ;
643 -> 647 ;
648 [label="NMHC <= 0.3\nmse = 90.3\nsamples = 36\nvalue = 48.0"] ;
640 -> 648 ;
649 [label="NO <= 6.8\nmse = 30.7\nsamples = 31\nvalue = 49.8"] ;
648 -> 649 ;
650 [label="CO <= 0.5\nmse = 28.0\nsamples = 21\nvalue = 52.3"] ;
649 -> 650 ;
651 [label="O3 <= 32.1\nmse = 7.4\nsamples = 4\nvalue = 47.2"] ;
650 -> 651 ;
652 [label="mse = 0.0\nsamples = 1\nvalue = 42.0"] ;
651 -> 652 ;
653 [label="Nox <= 27.5\nmse = 0.8\nsamples = 3\nvalue = 48.5"] ;
651 -> 653 ;
654 [label="mse = 0.0\nsamples = 2\nvalue = 49.0"] ;
653 -> 654 ;
655 [label="mse = 0.0\nsamples = 1\nvalue = 47.0"] ;
653 -> 655 ;
656 [label="Humidity <= 76.6\nmse = 25.5\nsamples = 17\nvalue = 53.4"] ;
650 -> 656 ;
657 [label="CH4 <= 2.0\nmse = 19.1\nsamples = 12\nvalue = 54.9"] ;
656 -> 657 ;
658 [label="NO2 <= 21.9\nmse = 6.8\nsamples = 9\nvalue = 53.9"] ;
657 -> 658 ;
659 [label="CH4 <= 1.8\nmse = 0.9\nsamples = 2\nvalue = 50.3"] ;
658 -> 659 ;
660 [label="mse = 0.0\nsamples = 1\nvalue = 51.0"] ;
659 -> 660 ;
661 [label="mse = 0.0\nsamples = 1\nvalue = 49.0"] ;
659 -> 661 ;
662 [label="O3 <= 33.5\nmse = 3.9\nsamples = 7\nvalue = 54.9"] ;
658 -> 662 ;
663 [label="NMHC <= 0.1\nmse = 1.4\nsamples = 6\nvalue = 54.4"] ;
662 -> 663 ;
664 [label="O3 <= 24.9\nmse = 0.2\nsamples = 2\nvalue = 56.5"] ;
663 -> 664 ;
665 [label="mse = 0.0\nsamples = 1\nvalue = 57.0"] ;
664 -> 665 ;
666 [label="mse = 0.0\nsamples = 1\nvalue = 56.0"] ;
664 -> 666 ;
667 [label="Humidity <= 71.2\nmse = 0.4\nsamples = 4\nvalue = 53.9"] ;
663 -> 667 ;
668 [label="mse = 0.0\nsamples = 1\nvalue = 53.0"] ;
667 -> 668 ;
669 [label="O3 <= 28.4\nmse = 0.1\nsamples = 3\nvalue = 54.2"] ;
667 -> 669 ;
670 [label="mse = 0.0\nsamples = 2\nvalue = 54.0"] ;
669 -> 670 ;
671 [label="mse = 0.0\nsamples = 1\nvalue = 55.0"] ;
669 -> 671 ;
672 [label="mse = 0.0\nsamples = 1\nvalue = 60.0"] ;
662 -> 672 ;
673 [label="SO2 <= 6.1\nmse = 49.6\nsamples = 3\nvalue = 59.7"] ;
657 -> 673 ;
674 [label="mse = 0.0\nsamples = 1\nvalue = 69.0"] ;
673 -> 674 ;
675 [label="NO <= 5.3\nmse = 9.0\nsamples = 2\nvalue = 55.0"] ;
673 -> 675 ;
676 [label="mse = 0.0\nsamples = 1\nvalue = 58.0"] ;
675 -> 676 ;
677 [label="mse = 0.0\nsamples = 1\nvalue = 52.0"] ;
675 -> 677 ;
678 [label="Humidity <= 79.7\nmse = 12.2\nsamples = 5\nvalue = 48.2"] ;
656 -> 678 ;
679 [label="CO <= 0.6\nmse = 3.2\nsamples = 4\nvalue = 49.8"] ;
678 -> 679 ;
680 [label="NO <= 5.2\nmse = 0.9\nsamples = 3\nvalue = 50.7"] ;
679 -> 680 ;
681 [label="mse = 0.0\nsamples = 1\nvalue = 52.0"] ;
680 -> 681 ;
682 [label="mse = 0.0\nsamples = 2\nvalue = 50.0"] ;
680 -> 682 ;
683 [label="mse = 0.0\nsamples = 1\nvalue = 47.0"] ;
679 -> 683 ;
684 [label="mse = 0.0\nsamples = 1\nvalue = 42.0"] ;
678 -> 684 ;
685 [label="NO2 <= 23.7\nmse = 5.3\nsamples = 10\nvalue = 45.4"] ;
649 -> 685 ;
686 [label="CH4 <= 1.8\nmse = 4.1\nsamples = 7\nvalue = 44.5"] ;
685 -> 686 ;
687 [label="THC <= 1.0\nmse = 1.2\nsamples = 3\nvalue = 42.2"] ;
686 -> 687 ;
688 [label="mse = 0.0\nsamples = 1\nvalue = 44.0"] ;
687 -> 688 ;
689 [label="Humidity <= 76.5\nmse = 0.2\nsamples = 2\nvalue = 41.7"] ;
687 -> 689 ;
690 [label="mse = 0.0\nsamples = 1\nvalue = 42.0"] ;
689 -> 690 ;
691 [label="mse = 0.0\nsamples = 1\nvalue = 41.0"] ;
689 -> 691 ;
692 [label="CH4 <= 2.1\nmse = 1.0\nsamples = 4\nvalue = 45.9"] ;
686 -> 692 ;
693 [label="THC <= 2.1\nmse = 0.2\nsamples = 3\nvalue = 45.5"] ;
692 -> 693 ;
694 [label="mse = 0.0\nsamples = 1\nvalue = 46.0"] ;
693 -> 694 ;
695 [label="mse = 0.0\nsamples = 2\nvalue = 45.0"] ;
693 -> 695 ;
696 [label="mse = 0.0\nsamples = 1\nvalue = 48.0"] ;
692 -> 696 ;
697 [label="NO <= 7.2\nmse = 1.2\nsamples = 3\nvalue = 47.8"] ;
685 -> 697 ;
698 [label="mse = 0.0\nsamples = 1\nvalue = 46.0"] ;
697 -> 698 ;
699 [label="Humidity <= 76.4\nmse = 0.2\nsamples = 2\nvalue = 48.3"] ;
697 -> 699 ;
700 [label="mse = 0.0\nsamples = 1\nvalue = 49.0"] ;
699 -> 700 ;
701 [label="mse = 0.0\nsamples = 1\nvalue = 48.0"] ;
699 -> 701 ;
702 [label="NO2 <= 22.5\nmse = 295.8\nsamples = 5\nvalue = 38.5"] ;
648 -> 702 ;
703 [label="NO <= 5.0\nmse = 100.0\nsamples = 2\nvalue = 10.0"] ;
702 -> 703 ;
704 [label="mse = 0.0\nsamples = 1\nvalue = 20.0"] ;
703 -> 704 ;
705 [label="mse = 0.0\nsamples = 1\nvalue = 0.0"] ;
703 -> 705 ;
706 [label="mse = 0.0\nsamples = 3\nvalue = 48.0"] ;
702 -> 706 ;
707 [label="O3 <= 23.1\nmse = 83.7\nsamples = 111\nvalue = 58.0"] ;
505 -> 707 ;
708 [label="Humidity <= 71.9\nmse = 45.4\nsamples = 26\nvalue = 51.6"] ;
707 -> 708 ;
709 [label="NO <= 16.8\nmse = 23.2\nsamples = 7\nvalue = 59.0"] ;
708 -> 709 ;
710 [label="O3 <= 18.1\nmse = 13.2\nsamples = 5\nvalue = 62.0"] ;
709 -> 710 ;
711 [label="mse = 0.0\nsamples = 1\nvalue = 68.0"] ;
710 -> 711 ;
712 [label="CO <= 0.9\nmse = 5.2\nsamples = 4\nvalue = 60.5"] ;
710 -> 712 ;
713 [label="CH4 <= 2.0\nmse = 1.6\nsamples = 3\nvalue = 61.7"] ;
712 -> 713 ;
714 [label="CH4 <= 1.0\nmse = 0.2\nsamples = 2\nvalue = 62.5"] ;
713 -> 714 ;
715 [label="mse = 0.0\nsamples = 1\nvalue = 62.0"] ;
714 -> 715 ;
716 [label="mse = 0.0\nsamples = 1\nvalue = 63.0"] ;
714 -> 716 ;
717 [label="mse = 0.0\nsamples = 1\nvalue = 60.0"] ;
713 -> 717 ;
718 [label="mse = 0.0\nsamples = 1\nvalue = 57.0"] ;
712 -> 718 ;
719 [label="mse = 0.0\nsamples = 2\nvalue = 54.0"] ;
709 -> 719 ;
720 [label="Nox <= 49.5\nmse = 31.1\nsamples = 19\nvalue = 49.4"] ;
708 -> 720 ;
721 [label="NO <= 7.3\nmse = 23.8\nsamples = 18\nvalue = 48.9"] ;
720 -> 721 ;
722 [label="CO <= 0.6\nmse = 6.5\nsamples = 4\nvalue = 56.0"] ;
721 -> 722 ;
723 [label="THC <= 2.2\nmse = 1.6\nsamples = 3\nvalue = 57.3"] ;
722 -> 723 ;
724 [label="mse = 0.0\nsamples = 1\nvalue = 59.0"] ;
723 -> 724 ;
725 [label="NO <= 6.9\nmse = 0.2\nsamples = 2\nvalue = 56.5"] ;
723 -> 725 ;
726 [label="mse = 0.0\nsamples = 1\nvalue = 56.0"] ;
725 -> 726 ;
727 [label="mse = 0.0\nsamples = 1\nvalue = 57.0"] ;
725 -> 727 ;
728 [label="mse = 0.0\nsamples = 1\nvalue = 52.0"] ;
722 -> 728 ;
729 [label="O3 <= 18.1\nmse = 16.1\nsamples = 14\nvalue = 47.6"] ;
721 -> 729 ;
730 [label="THC <= 2.3\nmse = 15.8\nsamples = 5\nvalue = 51.0"] ;
729 -> 730 ;
731 [label="CH4 <= 2.0\nmse = 1.5\nsamples = 3\nvalue = 48.8"] ;
730 -> 731 ;
732 [label="NO <= 11.5\nmse = 0.2\nsamples = 2\nvalue = 50.5"] ;
731 -> 732 ;
733 [label="mse = 0.0\nsamples = 1\nvalue = 50.0"] ;
732 -> 733 ;
734 [label="mse = 0.0\nsamples = 1\nvalue = 51.0"] ;
732 -> 734 ;
735 [label="mse = 0.0\nsamples = 1\nvalue = 48.0"] ;
731 -> 735 ;
736 [label="CH4 <= 2.0\nmse = 2.2\nsamples = 2\nvalue = 57.5"] ;
730 -> 736 ;
737 [label="mse = 0.0\nsamples = 1\nvalue = 56.0"] ;
736 -> 737 ;
738 [label="mse = 0.0\nsamples = 1\nvalue = 59.0"] ;
736 -> 738 ;
739 [label="CO <= 1.0\nmse = 5.8\nsamples = 9\nvalue = 45.6"] ;
729 -> 739 ;
740 [label="O3 <= 22.6\nmse = 2.6\nsamples = 8\nvalue = 46.2"] ;
739 -> 740 ;
741 [label="Humidity <= 73.3\nmse = 1.5\nsamples = 7\nvalue = 45.8"] ;
740 -> 741 ;
742 [label="mse = 0.0\nsamples = 1\nvalue = 43.0"] ;
741 -> 742 ;
743 [label="O3 <= 20.0\nmse = 0.8\nsamples = 6\nvalue = 46.1"] ;
741 -> 743 ;
744 [label="O3 <= 18.3\nmse = 0.5\nsamples = 3\nvalue = 47.0"] ;
743 -> 744 ;
745 [label="mse = 0.0\nsamples = 1\nvalue = 46.0"] ;
744 -> 745 ;
746 [label="CO <= 0.7\nmse = 0.2\nsamples = 2\nvalue = 47.3"] ;
744 -> 746 ;
747 [label="mse = 0.0\nsamples = 1\nvalue = 47.0"] ;
746 -> 747 ;
748 [label="mse = 0.0\nsamples = 1\nvalue = 48.0"] ;
746 -> 748 ;
749 [label="Humidity <= 76.5\nmse = 0.2\nsamples = 3\nvalue = 45.6"] ;
743 -> 749 ;
750 [label="mse = 0.0\nsamples = 2\nvalue = 46.0"] ;
749 -> 750 ;
751 [label="mse = 0.0\nsamples = 1\nvalue = 45.0"] ;
749 -> 751 ;
752 [label="mse = 0.0\nsamples = 1\nvalue = 50.0"] ;
740 -> 752 ;
753 [label="mse = 0.0\nsamples = 1\nvalue = 39.0"] ;
739 -> 753 ;
754 [label="mse = 0.0\nsamples = 1\nvalue = 64.0"] ;
720 -> 754 ;
755 [label="O3 <= 28.8\nmse = 80.2\nsamples = 85\nvalue = 59.7"] ;
707 -> 755 ;
756 [label="NO2 <= 27.1\nmse = 54.2\nsamples = 42\nvalue = 63.4"] ;
755 -> 756 ;
757 [label="Humidity <= 76.3\nmse = 34.9\nsamples = 10\nvalue = 56.0"] ;
756 -> 757 ;
758 [label="SO2 <= 4.9\nmse = 17.2\nsamples = 7\nvalue = 58.5"] ;
757 -> 758 ;
759 [label="THC <= 1.0\nmse = 5.6\nsamples = 2\nvalue = 53.3"] ;
758 -> 759 ;
760 [label="mse = 0.0\nsamples = 1\nvalue = 55.0"] ;
759 -> 760 ;
761 [label="mse = 0.0\nsamples = 1\nvalue = 50.0"] ;
759 -> 761 ;
762 [label="NO2 <= 26.3\nmse = 5.9\nsamples = 5\nvalue = 60.7"] ;
758 -> 762 ;
763 [label="Nox <= 34.5\nmse = 2.6\nsamples = 4\nvalue = 61.5"] ;
762 -> 763 ;
764 [label="CO <= 0.6\nmse = 0.2\nsamples = 3\nvalue = 60.8"] ;
763 -> 764 ;
765 [label="mse = 0.0\nsamples = 2\nvalue = 61.0"] ;
764 -> 765 ;
766 [label="mse = 0.0\nsamples = 1\nvalue = 60.0"] ;
764 -> 766 ;
767 [label="mse = 0.0\nsamples = 1\nvalue = 65.0"] ;
763 -> 767 ;
768 [label="mse = 0.0\nsamples = 1\nvalue = 56.0"] ;
762 -> 768 ;
769 [label="O3 <= 24.7\nmse = 3.6\nsamples = 3\nvalue = 47.7"] ;
757 -> 769 ;
770 [label="mse = 0.0\nsamples = 1\nvalue = 45.0"] ;
769 -> 770 ;
771 [label="mse = 0.0\nsamples = 2\nvalue = 49.0"] ;
769 -> 771 ;
772 [label="NO <= 12.9\nmse = 40.1\nsamples = 32\nvalue = 65.5"] ;
756 -> 772 ;
773 [label="CO <= 0.9\nmse = 34.9\nsamples = 29\nvalue = 64.7"] ;
772 -> 773 ;
774 [label="CH4 <= 2.0\nmse = 29.9\nsamples = 27\nvalue = 65.4"] ;
773 -> 774 ;
775 [label="SO2 <= 6.1\nmse = 20.4\nsamples = 20\nvalue = 63.9"] ;
774 -> 775 ;
776 [label="Humidity <= 64.5\nmse = 0.2\nsamples = 3\nvalue = 57.5"] ;
775 -> 776 ;
777 [label="mse = 0.0\nsamples = 1\nvalue = 57.0"] ;
776 -> 777 ;
778 [label="mse = 0.0\nsamples = 2\nvalue = 58.0"] ;
776 -> 778 ;
779 [label="CO <= 0.8\nmse = 16.4\nsamples = 17\nvalue = 64.8"] ;
775 -> 779 ;
780 [label="NMHC <= 0.3\nmse = 12.5\nsamples = 14\nvalue = 63.7"] ;
779 -> 780 ;
781 [label="SO2 <= 13.0\nmse = 5.2\nsamples = 6\nvalue = 66.1"] ;
780 -> 781 ;
782 [label="NO2 <= 27.4\nmse = 2.8\nsamples = 5\nvalue = 66.6"] ;
781 -> 782 ;
783 [label="mse = 0.0\nsamples = 1\nvalue = 71.0"] ;
782 -> 783 ;
784 [label="CO <= 0.6\nmse = 0.8\nsamples = 4\nvalue = 66.1"] ;
782 -> 784 ;
785 [label="mse = 0.0\nsamples = 1\nvalue = 64.0"] ;
784 -> 785 ;
786 [label="Humidity <= 73.9\nmse = 0.2\nsamples = 3\nvalue = 66.4"] ;
784 -> 786 ;
787 [label="mse = 0.0\nsamples = 2\nvalue = 66.0"] ;
786 -> 787 ;
788 [label="mse = 0.0\nsamples = 1\nvalue = 67.0"] ;
786 -> 788 ;
789 [label="mse = 0.0\nsamples = 1\nvalue = 61.0"] ;
781 -> 789 ;
790 [label="SO2 <= 11.8\nmse = 8.2\nsamples = 8\nvalue = 61.3"] ;
780 -> 790 ;
791 [label="CH4 <= 2.0\nmse = 5.0\nsamples = 6\nvalue = 60.0"] ;
790 -> 791 ;
792 [label="CO <= 0.7\nmse = 3.1\nsamples = 5\nvalue = 60.6"] ;
791 -> 792 ;
793 [label="O3 <= 25.9\nmse = 0.2\nsamples = 3\nvalue = 61.6"] ;
792 -> 793 ;
794 [label="mse = 0.0\nsamples = 1\nvalue = 61.0"] ;
793 -> 794 ;
795 [label="mse = 0.0\nsamples = 2\nvalue = 62.0"] ;
793 -> 795 ;
796 [label="NO2 <= 30.2\nmse = 1.0\nsamples = 2\nvalue = 58.0"] ;
792 -> 796 ;
797 [label="mse = 0.0\nsamples = 1\nvalue = 59.0"] ;
796 -> 797 ;
798 [label="mse = 0.0\nsamples = 1\nvalue = 57.0"] ;
796 -> 798 ;
799 [label="mse = 0.0\nsamples = 1\nvalue = 56.0"] ;
791 -> 799 ;
800 [label="THC <= 2.3\nmse = 0.9\nsamples = 2\nvalue = 64.7"] ;
790 -> 800 ;
801 [label="mse = 0.0\nsamples = 1\nvalue = 64.0"] ;
800 -> 801 ;
802 [label="mse = 0.0\nsamples = 1\nvalue = 66.0"] ;
800 -> 802 ;
803 [label="CH4 <= 1.8\nmse = 3.4\nsamples = 3\nvalue = 69.8"] ;
779 -> 803 ;
804 [label="mse = 0.0\nsamples = 1\nvalue = 72.0"] ;
803 -> 804 ;
805 [label="THC <= 2.3\nmse = 0.2\nsamples = 2\nvalue = 68.3"] ;
803 -> 805 ;
806 [label="mse = 0.0\nsamples = 1\nvalue = 69.0"] ;
805 -> 806 ;
807 [label="mse = 0.0\nsamples = 1\nvalue = 68.0"] ;
805 -> 807 ;
808 [label="NO <= 7.9\nmse = 24.8\nsamples = 7\nvalue = 70.9"] ;
774 -> 808 ;
809 [label="NO <= 7.3\nmse = 1.2\nsamples = 3\nvalue = 75.2"] ;
808 -> 809 ;
810 [label="mse = 0.0\nsamples = 1\nvalue = 77.0"] ;
809 -> 810 ;
811 [label="SO2 <= 3.6\nmse = 0.2\nsamples = 2\nvalue = 74.7"] ;
809 -> 811 ;
812 [label="mse = 0.0\nsamples = 1\nvalue = 74.0"] ;
811 -> 812 ;
813 [label="mse = 0.0\nsamples = 1\nvalue = 75.0"] ;
811 -> 813 ;
814 [label="CH4 <= 2.0\nmse = 16.2\nsamples = 4\nvalue = 67.4"] ;
808 -> 814 ;
815 [label="mse = 0.0\nsamples = 1\nvalue = 75.0"] ;
814 -> 815 ;
816 [label="THC <= 2.3\nmse = 2.2\nsamples = 3\nvalue = 65.5"] ;
814 -> 816 ;
817 [label="mse = 0.0\nsamples = 1\nvalue = 68.0"] ;
816 -> 817 ;
818 [label="NMHC <= 0.4\nmse = 0.2\nsamples = 2\nvalue = 64.7"] ;
816 -> 818 ;
819 [label="mse = 0.0\nsamples = 1\nvalue = 65.0"] ;
818 -> 819 ;
820 [label="mse = 0.0\nsamples = 1\nvalue = 64.0"] ;
818 -> 820 ;
821 [label="mse = 0.0\nsamples = 2\nvalue = 55.0"] ;
773 -> 821 ;
822 [label="CH4 <= 1.8\nmse = 24.8\nsamples = 3\nvalue = 73.5"] ;
772 -> 822 ;
823 [label="mse = 0.0\nsamples = 1\nvalue = 65.0"] ;
822 -> 823 ;
824 [label="SO2 <= 9.9\nmse = 0.9\nsamples = 2\nvalue = 76.3"] ;
822 -> 824 ;
825 [label="mse = 0.0\nsamples = 1\nvalue = 75.0"] ;
824 -> 825 ;
826 [label="mse = 0.0\nsamples = 1\nvalue = 77.0"] ;
824 -> 826 ;
827 [label="CH4 <= 2.1\nmse = 80.5\nsamples = 43\nvalue = 56.5"] ;
755 -> 827 ;
828 [label="SO2 <= 8.2\nmse = 71.1\nsamples = 38\nvalue = 57.6"] ;
827 -> 828 ;
829 [label="Humidity <= 72.1\nmse = 76.3\nsamples = 19\nvalue = 60.7"] ;
828 -> 829 ;
830 [label="CO <= 0.7\nmse = 41.1\nsamples = 12\nvalue = 56.9"] ;
829 -> 830 ;
831 [label="NMHC <= 0.1\nmse = 36.7\nsamples = 4\nvalue = 64.2"] ;
830 -> 831 ;
832 [label="mse = 0.0\nsamples = 1\nvalue = 55.0"] ;
831 -> 832 ;
833 [label="SO2 <= 7.0\nmse = 10.9\nsamples = 3\nvalue = 67.3"] ;
831 -> 833 ;
834 [label="mse = 0.0\nsamples = 2\nvalue = 65.0"] ;
833 -> 834 ;
835 [label="mse = 0.0\nsamples = 1\nvalue = 72.0"] ;
833 -> 835 ;
836 [label="NO2 <= 26.2\nmse = 22.7\nsamples = 8\nvalue = 54.9"] ;
830 -> 836 ;
837 [label="NMHC <= 0.3\nmse = 18.4\nsamples = 3\nvalue = 50.0"] ;
836 -> 837 ;
838 [label="THC <= 1.1\nmse = 3.0\nsamples = 2\nvalue = 52.0"] ;
837 -> 838 ;
839 [label="mse = 0.0\nsamples = 1\nvalue = 49.0"] ;
838 -> 839 ;
840 [label="mse = 0.0\nsamples = 1\nvalue = 53.0"] ;
838 -> 840 ;
841 [label="mse = 0.0\nsamples = 1\nvalue = 42.0"] ;
837 -> 841 ;
842 [label="THC <= 2.2\nmse = 4.7\nsamples = 5\nvalue = 57.6"] ;
836 -> 842 ;
843 [label="SO2 <= 6.8\nmse = 0.2\nsamples = 3\nvalue = 56.4"] ;
842 -> 843 ;
844 [label="mse = 0.0\nsamples = 2\nvalue = 56.0"] ;
843 -> 844 ;
845 [label="mse = 0.0\nsamples = 1\nvalue = 57.0"] ;
843 -> 845 ;
846 [label="NO <= 6.2\nmse = 0.2\nsamples = 2\nvalue = 61.5"] ;
842 -> 846 ;
847 [label="mse = 0.0\nsamples = 1\nvalue = 62.0"] ;
846 -> 847 ;
848 [label="mse = 0.0\nsamples = 1\nvalue = 61.0"] ;
846 -> 848 ;
849 [label="NMHC <= 0.3\nmse = 81.1\nsamples = 7\nvalue = 65.4"] ;
829 -> 849 ;
850 [label="mse = 0.0\nsamples = 2\nvalue = 76.0"] ;
849 -> 850 ;
851 [label="Humidity <= 75.7\nmse = 29.6\nsamples = 5\nvalue = 59.6"] ;
849 -> 851 ;
852 [label="CO <= 0.6\nmse = 3.6\nsamples = 3\nvalue = 52.3"] ;
851 -> 852 ;
853 [label="mse = 0.0\nsamples = 1\nvalue = 55.0"] ;
852 -> 853 ;
854 [label="mse = 0.0\nsamples = 2\nvalue = 51.0"] ;
852 -> 854 ;
855 [label="SO2 <= 7.1\nmse = 3.5\nsamples = 2\nvalue = 63.2"] ;
851 -> 855 ;
856 [label="mse = 0.0\nsamples = 1\nvalue = 59.0"] ;
855 -> 856 ;
857 [label="mse = 0.0\nsamples = 1\nvalue = 64.0"] ;
855 -> 857 ;
858 [label="Humidity <= 69.1\nmse = 43.9\nsamples = 19\nvalue = 54.3"] ;
828 -> 858 ;
859 [label="THC <= 2.3\nmse = 5.8\nsamples = 5\nvalue = 63.8"] ;
858 -> 859 ;
860 [label="Humidity <= 68.7\nmse = 0.2\nsamples = 3\nvalue = 65.7"] ;
859 -> 860 ;
861 [label="mse = 0.0\nsamples = 2\nvalue = 66.0"] ;
860 -> 861 ;
862 [label="mse = 0.0\nsamples = 1\nvalue = 65.0"] ;
860 -> 862 ;
863 [label="NMHC <= 0.4\nmse = 1.0\nsamples = 2\nvalue = 61.0"] ;
859 -> 863 ;
864 [label="mse = 0.0\nsamples = 1\nvalue = 62.0"] ;
863 -> 864 ;
865 [label="mse = 0.0\nsamples = 1\nvalue = 60.0"] ;
863 -> 865 ;
866 [label="SO2 <= 8.9\nmse = 29.0\nsamples = 14\nvalue = 52.3"] ;
858 -> 866 ;
867 [label="NO2 <= 28.7\nmse = 19.9\nsamples = 4\nvalue = 46.7"] ;
866 -> 867 ;
868 [label="O3 <= 31.9\nmse = 13.5\nsamples = 3\nvalue = 49.0"] ;
867 -> 868 ;
869 [label="NO <= 8.6\nmse = 2.0\nsamples = 2\nvalue = 51.0"] ;
868 -> 869 ;
870 [label="mse = 0.0\nsamples = 1\nvalue = 53.0"] ;
869 -> 870 ;
871 [label="mse = 0.0\nsamples = 1\nvalue = 50.0"] ;
869 -> 871 ;
872 [label="mse = 0.0\nsamples = 1\nvalue = 43.0"] ;
868 -> 872 ;
873 [label="mse = 0.0\nsamples = 1\nvalue = 42.0"] ;
867 -> 873 ;
874 [label="Nox <= 36.5\nmse = 18.0\nsamples = 10\nvalue = 54.2"] ;
866 -> 874 ;
875 [label="CH4 <= 1.9\nmse = 10.7\nsamples = 8\nvalue = 52.5"] ;
874 -> 875 ;
876 [label="CO <= 0.6\nmse = 3.6\nsamples = 6\nvalue = 51.4"] ;
875 -> 876 ;
877 [label="SO2 <= 10.3\nmse = 0.2\nsamples = 2\nvalue = 49.4"] ;
876 -> 877 ;
878 [label="mse = 0.0\nsamples = 1\nvalue = 50.0"] ;
877 -> 878 ;
879 [label="mse = 0.0\nsamples = 1\nvalue = 49.0"] ;
877 -> 879 ;
880 [label="THC <= 1.0\nmse = 1.0\nsamples = 4\nvalue = 52.9"] ;
876 -> 880 ;
881 [label="mse = 0.0\nsamples = 1\nvalue = 54.0"] ;
880 -> 881 ;
882 [label="mse = 0.0\nsamples = 3\nvalue = 52.0"] ;
880 -> 882 ;
883 [label="NO2 <= 27.6\nmse = 4.0\nsamples = 2\nvalue = 59.0"] ;
875 -> 883 ;
884 [label="mse = 0.0\nsamples = 1\nvalue = 57.0"] ;
883 -> 884 ;
885 [label="mse = 0.0\nsamples = 1\nvalue = 61.0"] ;
883 -> 885 ;
886 [label="mse = 0.0\nsamples = 2\nvalue = 60.0"] ;
874 -> 886 ;
887 [label="CH4 <= 2.1\nmse = 66.4\nsamples = 5\nvalue = 47.8"] ;
827 -> 887 ;
888 [label="Humidity <= 70.0\nmse = 2.2\nsamples = 2\nvalue = 40.5"] ;
887 -> 888 ;
889 [label="mse = 0.0\nsamples = 1\nvalue = 42.0"] ;
888 -> 889 ;
890 [label="mse = 0.0\nsamples = 1\nvalue = 39.0"] ;
888 -> 890 ;
891 [label="Humidity <= 72.3\nmse = 25.5\nsamples = 3\nvalue = 55.0"] ;
887 -> 891 ;
892 [label="Nox <= 32.5\nmse = 5.6\nsamples = 2\nvalue = 52.3"] ;
891 -> 892 ;
893 [label="mse = 0.0\nsamples = 1\nvalue = 54.0"] ;
892 -> 893 ;
894 [label="mse = 0.0\nsamples = 1\nvalue = 49.0"] ;
892 -> 894 ;
895 [label="mse = 0.0\nsamples = 1\nvalue = 63.0"] ;
891 -> 895 ;
896 [label="TEMP <= 25.5\nmse = 61.8\nsamples = 142\nvalue = 37.3"] ;
504 -> 896 ;
897 [label="WindSpeed <= 1.0\nmse = 31.4\nsamples = 111\nvalue = 40.4"] ;
896 -> 897 ;
898 [label="TEMP <= 21.7\nmse = 18.6\nsamples = 4\nvalue = 50.6"] ;
897 -> 898 ;
899 [label="SO2 <= 4.4\nmse = 5.6\nsamples = 3\nvalue = 51.8"] ;
898 -> 899 ;
900 [label="mse = 0.0\nsamples = 1\nvalue = 49.0"] ;
899 -> 900 ;
901 [label="Nox <= 42.0\nmse = 0.6\nsamples = 2\nvalue = 53.7"] ;
899 -> 901 ;
902 [label="mse = 0.0\nsamples = 1\nvalue = 52.0"] ;
901 -> 902 ;
903 [label="mse = 0.0\nsamples = 1\nvalue = 54.0"] ;
901 -> 903 ;
904 [label="mse = 0.0\nsamples = 1\nvalue = 39.0"] ;
898 -> 904 ;
905 [label="CO <= 0.5\nmse = 24.9\nsamples = 107\nvalue = 39.8"] ;
897 -> 905 ;
906 [label="SO2 <= 3.6\nmse = 27.3\nsamples = 30\nvalue = 36.5"] ;
905 -> 906 ;
907 [label="SO2 <= 3.1\nmse = 14.0\nsamples = 12\nvalue = 41.4"] ;
906 -> 907 ;
908 [label="SO2 <= 2.7\nmse = 3.4\nsamples = 6\nvalue = 39.2"] ;
907 -> 908 ;
909 [label="NMHC <= 0.1\nmse = 1.0\nsamples = 2\nvalue = 42.0"] ;
908 -> 909 ;
910 [label="mse = 0.0\nsamples = 1\nvalue = 41.0"] ;
909 -> 910 ;
911 [label="mse = 0.0\nsamples = 1\nvalue = 43.0"] ;
909 -> 911 ;
912 [label="Nox <= 21.5\nmse = 0.9\nsamples = 4\nvalue = 38.3"] ;
908 -> 912 ;
913 [label="CO <= 0.5\nmse = 0.2\nsamples = 2\nvalue = 37.8"] ;
912 -> 913 ;
914 [label="mse = 0.0\nsamples = 1\nvalue = 38.0"] ;
913 -> 914 ;
915 [label="mse = 0.0\nsamples = 1\nvalue = 37.0"] ;
913 -> 915 ;
916 [label="CO <= 0.5\nmse = 0.2\nsamples = 2\nvalue = 39.5"] ;
912 -> 916 ;
917 [label="mse = 0.0\nsamples = 1\nvalue = 40.0"] ;
916 -> 917 ;
918 [label="mse = 0.0\nsamples = 1\nvalue = 39.0"] ;
916 -> 918 ;
919 [label="CO <= 0.5\nmse = 15.6\nsamples = 6\nvalue = 43.3"] ;
907 -> 919 ;
920 [label="NMHC <= 0.2\nmse = 5.2\nsamples = 5\nvalue = 44.5"] ;
919 -> 920 ;
921 [label="WindSpeed <= 2.4\nmse = 1.2\nsamples = 3\nvalue = 46.0"] ;
920 -> 921 ;
922 [label="CH4 <= 1.0\nmse = 0.2\nsamples = 2\nvalue = 46.5"] ;
921 -> 922 ;
923 [label="mse = 0.0\nsamples = 1\nvalue = 46.0"] ;
922 -> 923 ;
924 [label="mse = 0.0\nsamples = 1\nvalue = 47.0"] ;
922 -> 924 ;
925 [label="mse = 0.0\nsamples = 1\nvalue = 44.0"] ;
921 -> 925 ;
926 [label="THC <= 2.2\nmse = 2.0\nsamples = 2\nvalue = 42.0"] ;
920 -> 926 ;
927 [label="mse = 0.0\nsamples = 1\nvalue = 43.0"] ;
926 -> 927 ;
928 [label="mse = 0.0\nsamples = 1\nvalue = 40.0"] ;
926 -> 928 ;
929 [label="mse = 0.0\nsamples = 1\nvalue = 34.0"] ;
919 -> 929 ;
930 [label="NO2 <= 22.5\nmse = 14.9\nsamples = 18\nvalue = 33.9"] ;
906 -> 930 ;
931 [label="NO <= 3.5\nmse = 7.3\nsamples = 15\nvalue = 35.0"] ;
930 -> 931 ;
932 [label="NO2 <= 18.5\nmse = 2.9\nsamples = 7\nvalue = 33.4"] ;
931 -> 932 ;
933 [label="SO2 <= 4.8\nmse = 0.7\nsamples = 3\nvalue = 34.8"] ;
932 -> 933 ;
934 [label="CH4 <= 2.0\nmse = 0.2\nsamples = 2\nvalue = 35.5"] ;
933 -> 934 ;
935 [label="mse = 0.0\nsamples = 1\nvalue = 36.0"] ;
934 -> 935 ;
936 [label="mse = 0.0\nsamples = 1\nvalue = 35.0"] ;
934 -> 936 ;
937 [label="mse = 0.0\nsamples = 1\nvalue = 34.0"] ;
933 -> 937 ;
938 [label="SO2 <= 4.4\nmse = 1.0\nsamples = 4\nvalue = 31.9"] ;
932 -> 938 ;
939 [label="CO <= 0.5\nmse = 0.2\nsamples = 2\nvalue = 30.5"] ;
938 -> 939 ;
940 [label="mse = 0.0\nsamples = 1\nvalue = 31.0"] ;
939 -> 940 ;
941 [label="mse = 0.0\nsamples = 1\nvalue = 30.0"] ;
939 -> 941 ;
942 [label="NO <= 2.5\nmse = 0.2\nsamples = 2\nvalue = 32.4"] ;
938 -> 942 ;
943 [label="mse = 0.0\nsamples = 1\nvalue = 32.0"] ;
942 -> 943 ;
944 [label="mse = 0.0\nsamples = 1\nvalue = 33.0"] ;
942 -> 944 ;
945 [label="WindSpeed <= 2.5\nmse = 4.6\nsamples = 8\nvalue = 37.3"] ;
931 -> 945 ;
946 [label="NO <= 3.7\nmse = 2.0\nsamples = 7\nvalue = 37.8"] ;
945 -> 946 ;
947 [label="NO <= 3.6\nmse = 0.2\nsamples = 2\nvalue = 39.7"] ;
946 -> 947 ;
948 [label="mse = 0.0\nsamples = 1\nvalue = 40.0"] ;
947 -> 948 ;
949 [label="mse = 0.0\nsamples = 1\nvalue = 39.0"] ;
947 -> 949 ;
950 [label="TEMP <= 25.2\nmse = 0.6\nsamples = 5\nvalue = 37.0"] ;
946 -> 950 ;
951 [label="Humidity <= 76.9\nmse = 0.2\nsamples = 4\nvalue = 36.6"] ;
950 -> 951 ;
952 [label="Nox <= 26.0\nmse = 0.2\nsamples = 3\nvalue = 36.3"] ;
951 -> 952 ;
953 [label="mse = 0.0\nsamples = 2\nvalue = 36.0"] ;
952 -> 953 ;
954 [label="mse = 0.0\nsamples = 1\nvalue = 37.0"] ;
952 -> 954 ;
955 [label="mse = 0.0\nsamples = 1\nvalue = 37.0"] ;
951 -> 955 ;
956 [label="mse = 0.0\nsamples = 1\nvalue = 38.0"] ;
950 -> 956 ;
957 [label="mse = 0.0\nsamples = 1\nvalue = 32.0"] ;
945 -> 957 ;
958 [label="NO <= 3.4\nmse = 20.1\nsamples = 3\nvalue = 29.2"] ;
930 -> 958 ;
959 [label="mse = 0.0\nsamples = 1\nvalue = 23.0"] ;
958 -> 959 ;
960 [label="TEMP <= 21.8\nmse = 1.7\nsamples = 2\nvalue = 32.2"] ;
958 -> 960 ;
961 [label="mse = 0.0\nsamples = 1\nvalue = 30.0"] ;
960 -> 961 ;
962 [label="mse = 0.0\nsamples = 1\nvalue = 33.0"] ;
960 -> 962 ;
963 [label="TEMP <= 19.8\nmse = 17.7\nsamples = 77\nvalue = 41.1"] ;
905 -> 963 ;
964 [label="CH4 <= 1.0\nmse = 21.3\nsamples = 19\nvalue = 43.9"] ;
963 -> 964 ;
965 [label="O3 <= 27.8\nmse = 15.3\nsamples = 8\nvalue = 47.6"] ;
964 -> 965 ;
966 [label="O3 <= 24.4\nmse = 2.1\nsamples = 7\nvalue = 49.2"] ;
965 -> 966 ;
967 [label="Nox <= 35.0\nmse = 0.2\nsamples = 3\nvalue = 50.6"] ;
966 -> 967 ;
968 [label="mse = 0.0\nsamples = 2\nvalue = 51.0"] ;
967 -> 968 ;
969 [label="mse = 0.0\nsamples = 1\nvalue = 50.0"] ;
967 -> 969 ;
970 [label="Humidity <= 66.4\nmse = 0.7\nsamples = 4\nvalue = 48.0"] ;
966 -> 970 ;
971 [label="mse = 0.0\nsamples = 1\nvalue = 49.0"] ;
970 -> 971 ;
972 [label="NO <= 4.4\nmse = 0.2\nsamples = 3\nvalue = 47.5"] ;
970 -> 972 ;
973 [label="mse = 0.0\nsamples = 1\nvalue = 48.0"] ;
972 -> 973 ;
974 [label="mse = 0.0\nsamples = 2\nvalue = 47.0"] ;
972 -> 974 ;
975 [label="mse = 0.0\nsamples = 1\nvalue = 39.0"] ;
965 -> 975 ;
976 [label="NMHC <= 0.4\nmse = 5.9\nsamples = 11\nvalue = 40.9"] ;
964 -> 976 ;
977 [label="CO <= 0.7\nmse = 3.9\nsamples = 10\nvalue = 40.3"] ;
976 -> 977 ;
978 [label="THC <= 2.2\nmse = 2.5\nsamples = 9\nvalue = 40.8"] ;
977 -> 978 ;
979 [label="CH4 <= 2.0\nmse = 0.2\nsamples = 2\nvalue = 43.5"] ;
978 -> 979 ;
980 [label="mse = 0.0\nsamples = 1\nvalue = 43.0"] ;
979 -> 980 ;
981 [label="mse = 0.0\nsamples = 1\nvalue = 44.0"] ;
979 -> 981 ;
982 [label="WindSpeed <= 2.3\nmse = 1.2\nsamples = 7\nvalue = 40.3"] ;
978 -> 982 ;
983 [label="THC <= 2.2\nmse = 0.1\nsamples = 4\nvalue = 41.2"] ;
982 -> 983 ;
984 [label="mse = 0.0\nsamples = 1\nvalue = 42.0"] ;
983 -> 984 ;
985 [label="mse = 0.0\nsamples = 3\nvalue = 41.0"] ;
983 -> 985 ;
986 [label="mse = 0.0\nsamples = 3\nvalue = 39.0"] ;
982 -> 986 ;
987 [label="mse = 0.0\nsamples = 1\nvalue = 37.0"] ;
977 -> 987 ;
988 [label="mse = 0.0\nsamples = 1\nvalue = 45.0"] ;
976 -> 988 ;
989 [label="THC <= 2.2\nmse = 13.1\nsamples = 58\nvalue = 40.2"] ;
963 -> 989 ;
990 [label="THC <= 1.1\nmse = 11.9\nsamples = 29\nvalue = 38.9"] ;
989 -> 990 ;
991 [label="O3 <= 30.8\nmse = 12.6\nsamples = 23\nvalue = 39.8"] ;
990 -> 991 ;
992 [label="CO <= 0.7\nmse = 9.4\nsamples = 14\nvalue = 37.5"] ;
991 -> 992 ;
993 [label="TEMP <= 20.0\nmse = 6.9\nsamples = 12\nvalue = 36.9"] ;
992 -> 993 ;
994 [label="mse = 0.0\nsamples = 1\nvalue = 43.0"] ;
993 -> 994 ;
995 [label="CO <= 0.5\nmse = 4.5\nsamples = 11\nvalue = 36.4"] ;
993 -> 995 ;
996 [label="O3 <= 27.6\nmse = 2.0\nsamples = 2\nvalue = 39.0"] ;
995 -> 996 ;
997 [label="mse = 0.0\nsamples = 1\nvalue = 40.0"] ;
996 -> 997 ;
998 [label="mse = 0.0\nsamples = 1\nvalue = 37.0"] ;
996 -> 998 ;
999 [label="O3 <= 28.5\nmse = 2.9\nsamples = 9\nvalue = 35.7"] ;
995 -> 999 ;
1000 [label="WindSpeed <= 2.0\nmse = 1.8\nsamples = 7\nvalue = 35.0"] ;
999 -> 1000 ;
1001 [label="NO <= 5.1\nmse = 1.2\nsamples = 5\nvalue = 35.5"] ;
1000 -> 1001 ;
1002 [label="TEMP <= 22.9\nmse = 0.2\nsamples = 3\nvalue = 36.2"] ;
1001 -> 1002 ;
1003 [label="mse = 0.0\nsamples = 1\nvalue = 37.0"] ;
1002 -> 1003 ;
1004 [label="mse = 0.0\nsamples = 2\nvalue = 36.0"] ;
1002 -> 1004 ;
1005 [label="mse = 0.0\nsamples = 2\nvalue = 34.0"] ;
1001 -> 1005 ;
1006 [label="WindSpeed <= 2.1\nmse = 0.2\nsamples = 2\nvalue = 33.5"] ;
1000 -> 1006 ;
1007 [label="mse = 0.0\nsamples = 1\nvalue = 34.0"] ;
1006 -> 1007 ;
1008 [label="mse = 0.0\nsamples = 1\nvalue = 33.0"] ;
1006 -> 1008 ;
1009 [label="TEMP <= 22.5\nmse = 0.9\nsamples = 2\nvalue = 37.7"] ;
999 -> 1009 ;
1010 [label="mse = 0.0\nsamples = 1\nvalue = 39.0"] ;
1009 -> 1010 ;
1011 [label="mse = 0.0\nsamples = 1\nvalue = 37.0"] ;
1009 -> 1011 ;
1012 [label="TEMP <= 22.0\nmse = 0.2\nsamples = 2\nvalue = 42.5"] ;
992 -> 1012 ;
1013 [label="mse = 0.0\nsamples = 1\nvalue = 43.0"] ;
1012 -> 1013 ;
1014 [label="mse = 0.0\nsamples = 1\nvalue = 42.0"] ;
1012 -> 1014 ;
1015 [label="CO <= 0.5\nmse = 5.2\nsamples = 9\nvalue = 42.1"] ;
991 -> 1015 ;
1016 [label="NO <= 4.3\nmse = 2.4\nsamples = 4\nvalue = 44.1"] ;
1015 -> 1016 ;
1017 [label="NO2 <= 19.8\nmse = 0.8\nsamples = 3\nvalue = 45.0"] ;
1016 -> 1017 ;
1018 [label="mse = 0.0\nsamples = 1\nvalue = 44.0"] ;
1017 -> 1018 ;
1019 [label="SO2 <= 5.3\nmse = 0.2\nsamples = 2\nvalue = 45.7"] ;
1017 -> 1019 ;
1020 [label="mse = 0.0\nsamples = 1\nvalue = 45.0"] ;
1019 -> 1020 ;
1021 [label="mse = 0.0\nsamples = 1\nvalue = 46.0"] ;
1019 -> 1021 ;
1022 [label="mse = 0.0\nsamples = 1\nvalue = 42.0"] ;
1016 -> 1022 ;
1023 [label="NO <= 3.5\nmse = 2.2\nsamples = 5\nvalue = 40.7"] ;
1015 -> 1023 ;
1024 [label="NO <= 3.1\nmse = 1.0\nsamples = 2\nvalue = 38.0"] ;
1023 -> 1024 ;
1025 [label="mse = 0.0\nsamples = 1\nvalue = 37.0"] ;
1024 -> 1025 ;
1026 [label="mse = 0.0\nsamples = 1\nvalue = 39.0"] ;
1024 -> 1026 ;
1027 [label="TEMP <= 22.6\nmse = 0.2\nsamples = 3\nvalue = 41.4"] ;
1023 -> 1027 ;
1028 [label="mse = 0.0\nsamples = 1\nvalue = 42.0"] ;
1027 -> 1028 ;
1029 [label="mse = 0.0\nsamples = 2\nvalue = 41.0"] ;
1027 -> 1029 ;
1030 [label="NO <= 3.2\nmse = 2.8\nsamples = 6\nvalue = 36.6"] ;
990 -> 1030 ;
1031 [label="NO2 <= 19.1\nmse = 1.8\nsamples = 3\nvalue = 37.9"] ;
1030 -> 1031 ;
1032 [label="mse = 0.0\nsamples = 1\nvalue = 37.0"] ;
1031 -> 1032 ;
1033 [label="mse = 0.0\nsamples = 2\nvalue = 40.0"] ;
1031 -> 1033 ;
1034 [label="Humidity <= 66.3\nmse = 0.5\nsamples = 3\nvalue = 35.3"] ;
1030 -> 1034 ;
1035 [label="mse = 0.0\nsamples = 1\nvalue = 36.0"] ;
1034 -> 1035 ;
1036 [label="Nox <= 25.0\nmse = 0.2\nsamples = 2\nvalue = 34.8"] ;
1034 -> 1036 ;
1037 [label="mse = 0.0\nsamples = 1\nvalue = 35.0"] ;
1036 -> 1037 ;
1038 [label="mse = 0.0\nsamples = 1\nvalue = 34.0"] ;
1036 -> 1038 ;
1039 [label="O3 <= 25.4\nmse = 10.0\nsamples = 29\nvalue = 41.8"] ;
989 -> 1039 ;
1040 [label="CH4 <= 2.2\nmse = 7.2\nsamples = 15\nvalue = 39.7"] ;
1039 -> 1040 ;
1041 [label="TEMP <= 20.2\nmse = 3.8\nsamples = 14\nvalue = 40.4"] ;
1040 -> 1041 ;
1042 [label="Nox <= 31.5\nmse = 1.0\nsamples = 2\nvalue = 44.0"] ;
1041 -> 1042 ;
1043 [label="mse = 0.0\nsamples = 1\nvalue = 45.0"] ;
1042 -> 1043 ;
1044 [label="mse = 0.0\nsamples = 1\nvalue = 43.0"] ;
1042 -> 1044 ;
1045 [label="CO <= 0.7\nmse = 2.2\nsamples = 12\nvalue = 39.9"] ;
1041 -> 1045 ;
1046 [label="WindSpeed <= 1.5\nmse = 1.6\nsamples = 8\nvalue = 40.6"] ;
1045 -> 1046 ;
1047 [label="mse = 0.0\nsamples = 2\nvalue = 43.0"] ;
1046 -> 1047 ;
1048 [label="O3 <= 19.9\nmse = 0.2\nsamples = 6\nvalue = 40.0"] ;
1046 -> 1048 ;
1049 [label="mse = 0.0\nsamples = 1\nvalue = 39.0"] ;
1048 -> 1049 ;
1050 [label="CO <= 0.7\nmse = 0.1\nsamples = 5\nvalue = 40.1"] ;
1048 -> 1050 ;
1051 [label="mse = 0.0\nsamples = 4\nvalue = 40.0"] ;
1050 -> 1051 ;
1052 [label="mse = 0.0\nsamples = 1\nvalue = 41.0"] ;
1050 -> 1052 ;
1053 [label="Nox <= 34.5\nmse = 0.6\nsamples = 4\nvalue = 38.6"] ;
1045 -> 1053 ;
1054 [label="SO2 <= 4.4\nmse = 0.2\nsamples = 2\nvalue = 39.5"] ;
1053 -> 1054 ;
1055 [label="mse = 0.0\nsamples = 1\nvalue = 40.0"] ;
1054 -> 1055 ;
1056 [label="mse = 0.0\nsamples = 1\nvalue = 39.0"] ;
1054 -> 1056 ;
1057 [label="mse = 0.0\nsamples = 2\nvalue = 38.0"] ;
1053 -> 1057 ;
1058 [label="mse = 0.0\nsamples = 1\nvalue = 34.0"] ;
1040 -> 1058 ;
1059 [label="NMHC <= 0.2\nmse = 5.4\nsamples = 14\nvalue = 43.6"] ;
1039 -> 1059 ;
1060 [label="TEMP <= 21.2\nmse = 2.6\nsamples = 6\nvalue = 45.2"] ;
1059 -> 1060 ;
1061 [label="mse = 0.0\nsamples = 1\nvalue = 49.0"] ;
1060 -> 1061 ;
1062 [label="WindSpeed <= 2.3\nmse = 1.1\nsamples = 5\nvalue = 44.8"] ;
1060 -> 1062 ;
1063 [label="SO2 <= 3.9\nmse = 0.2\nsamples = 4\nvalue = 45.3"] ;
1062 -> 1063 ;
1064 [label="mse = 0.0\nsamples = 1\nvalue = 46.0"] ;
1063 -> 1064 ;
1065 [label="mse = 0.0\nsamples = 3\nvalue = 45.0"] ;
1063 -> 1065 ;
1066 [label="mse = 0.0\nsamples = 1\nvalue = 43.0"] ;
1062 -> 1066 ;
1067 [label="Humidity <= 69.9\nmse = 3.6\nsamples = 8\nvalue = 42.2"] ;
1059 -> 1067 ;
1068 [label="mse = 0.0\nsamples = 1\nvalue = 37.0"] ;
1067 -> 1068 ;
1069 [label="Humidity <= 73.2\nmse = 1.0\nsamples = 7\nvalue = 42.7"] ;
1067 -> 1069 ;
1070 [label="mse = 0.0\nsamples = 2\nvalue = 41.0"] ;
1069 -> 1070 ;
1071 [label="TEMP <= 25.3\nmse = 0.4\nsamples = 5\nvalue = 43.1"] ;
1069 -> 1071 ;
1072 [label="Humidity <= 73.9\nmse = 0.1\nsamples = 4\nvalue = 42.8"] ;
1071 -> 1072 ;
1073 [label="mse = 0.0\nsamples = 1\nvalue = 42.0"] ;
1072 -> 1073 ;
1074 [label="mse = 0.0\nsamples = 3\nvalue = 43.0"] ;
1072 -> 1074 ;
1075 [label="mse = 0.0\nsamples = 1\nvalue = 44.0"] ;
1071 -> 1075 ;
1076 [label="NO2 <= 23.1\nmse = 30.0\nsamples = 31\nvalue = 27.5"] ;
896 -> 1076 ;
1077 [label="NO <= 4.2\nmse = 20.7\nsamples = 27\nvalue = 26.2"] ;
1076 -> 1077 ;
1078 [label="SO2 <= 5.5\nmse = 14.8\nsamples = 20\nvalue = 27.9"] ;
1077 -> 1078 ;
1079 [label="CH4 <= 1.9\nmse = 10.8\nsamples = 15\nvalue = 26.9"] ;
1078 -> 1079 ;
1080 [label="WindSpeed <= 1.7\nmse = 0.2\nsamples = 2\nvalue = 21.5"] ;
1079 -> 1080 ;
1081 [label="mse = 0.0\nsamples = 1\nvalue = 21.0"] ;
1080 -> 1081 ;
1082 [label="mse = 0.0\nsamples = 1\nvalue = 22.0"] ;
1080 -> 1082 ;
1083 [label="NMHC <= 0.2\nmse = 3.9\nsamples = 13\nvalue = 28.3"] ;
1079 -> 1083 ;
1084 [label="NO2 <= 17.8\nmse = 0.2\nsamples = 3\nvalue = 31.8"] ;
1083 -> 1084 ;
1085 [label="mse = 0.0\nsamples = 2\nvalue = 32.0"] ;
1084 -> 1085 ;
1086 [label="mse = 0.0\nsamples = 1\nvalue = 31.0"] ;
1084 -> 1086 ;
1087 [label="SO2 <= 4.6\nmse = 1.7\nsamples = 10\nvalue = 27.6"] ;
1083 -> 1087 ;
1088 [label="Humidity <= 73.0\nmse = 0.8\nsamples = 5\nvalue = 26.6"] ;
1087 -> 1088 ;
1089 [label="WindSpeed <= 1.7\nmse = 0.2\nsamples = 3\nvalue = 25.8"] ;
1088 -> 1089 ;
1090 [label="mse = 0.0\nsamples = 2\nvalue = 26.0"] ;
1089 -> 1090 ;
1091 [label="mse = 0.0\nsamples = 1\nvalue = 25.0"] ;
1089 -> 1091 ;
1092 [label="O3 <= 41.3\nmse = 0.2\nsamples = 2\nvalue = 27.4"] ;
1088 -> 1092 ;
1093 [label="mse = 0.0\nsamples = 1\nvalue = 27.0"] ;
1092 -> 1093 ;
1094 [label="mse = 0.0\nsamples = 1\nvalue = 28.0"] ;
1092 -> 1094 ;
1095 [label="WindSpeed <= 1.7\nmse = 0.2\nsamples = 5\nvalue = 28.8"] ;
1087 -> 1095 ;
1096 [label="mse = 0.0\nsamples = 3\nvalue = 29.0"] ;
1095 -> 1096 ;
1097 [label="mse = 0.0\nsamples = 2\nvalue = 28.0"] ;
1095 -> 1097 ;
1098 [label="SO2 <= 6.2\nmse = 10.6\nsamples = 5\nvalue = 32.0"] ;
1078 -> 1098 ;
1099 [label="mse = 0.0\nsamples = 1\nvalue = 39.0"] ;
1098 -> 1099 ;
1100 [label="WindSpeed <= 1.6\nmse = 2.8\nsamples = 4\nvalue = 30.8"] ;
1098 -> 1100 ;
1101 [label="mse = 0.0\nsamples = 1\nvalue = 34.0"] ;
1100 -> 1101 ;
1102 [label="CH4 <= 1.9\nmse = 1.0\nsamples = 3\nvalue = 30.2"] ;
1100 -> 1102 ;
1103 [label="mse = 0.0\nsamples = 1\nvalue = 31.0"] ;
1102 -> 1103 ;
1104 [label="mse = 0.0\nsamples = 2\nvalue = 29.0"] ;
1102 -> 1104 ;
1105 [label="NO <= 4.5\nmse = 7.3\nsamples = 7\nvalue = 21.5"] ;
1077 -> 1105 ;
1106 [label="NMHC <= 0.1\nmse = 1.0\nsamples = 2\nvalue = 16.0"] ;
1105 -> 1106 ;
1107 [label="mse = 0.0\nsamples = 1\nvalue = 17.0"] ;
1106 -> 1107 ;
1108 [label="mse = 0.0\nsamples = 1\nvalue = 15.0"] ;
1106 -> 1108 ;
1109 [label="NO2 <= 20.4\nmse = 1.9\nsamples = 5\nvalue = 22.5"] ;
1105 -> 1109 ;
1110 [label="SO2 <= 7.8\nmse = 0.2\nsamples = 3\nvalue = 21.3"] ;
1109 -> 1110 ;
1111 [label="mse = 0.0\nsamples = 2\nvalue = 21.0"] ;
1110 -> 1111 ;
1112 [label="mse = 0.0\nsamples = 1\nvalue = 22.0"] ;
1110 -> 1112 ;
1113 [label="mse = 0.0\nsamples = 2\nvalue = 24.0"] ;
1109 -> 1113 ;
1114 [label="CH4 <= 2.0\nmse = 12.8\nsamples = 4\nvalue = 35.5"] ;
1076 -> 1114 ;
1115 [label="mse = 0.0\nsamples = 1\nvalue = 40.0"] ;
1114 -> 1115 ;
1116 [label="CO <= 0.6\nmse = 1.0\nsamples = 3\nvalue = 32.8"] ;
1114 -> 1116 ;
1117 [label="mse = 0.0\nsamples = 1\nvalue = 34.0"] ;
1116 -> 1117 ;
1118 [label="mse = 0.0\nsamples = 2\nvalue = 32.0"] ;
1116 -> 1118 ;
}